<neuralNetwork>
    <neuron name = "0" type = "sensor" linkName = "0" />
    <neuron name = "1" type = "sensor" linkName = "1" />
    <neuron name = "2" type = "sensor" linkName = "2" />
    <neuron name = "3" type = "sensor" linkName = "3" />
    <neuron name = "4" type = "sensor" linkName = "4" />
    <neuron name = "5" type = "sensor" linkName = "5" />
    <neuron name = "6" type = "sensor" linkName = "7" />
    <neuron name = "7" type = "sensor" linkName = "8" />
    <neuron name = "8" type = "sensor" linkName = "10" />
    <neuron name = "9" type = "sensor" linkName = "11" />
    <neuron name = "10" type = "sensor" linkName = "12" />
    <neuron name = "11" type = "sensor" linkName = "13" />
    <neuron name = "12" type = "sensor" linkName = "14" />
    <neuron name = "13" type = "sensor" linkName = "15" />
    <neuron name = "14" type = "sensor" linkName = "16" />
    <neuron name = "15" type = "sensor" linkName = "17" />
    <neuron name = "16" type = "sensor" linkName = "20" />
    <neuron name = "17" type = "sensor" linkName = "21" />
    <neuron name = "18" type = "sensor" linkName = "24" />
    <neuron name = "19" type = "sensor" linkName = "25" />
    <neuron name = "20" type = "sensor" linkName = "26" />
    <neuron name = "21" type = "sensor" linkName = "27" />
    <neuron name = "22" type = "sensor" linkName = "28" />
    <neuron name = "23" type = "sensor" linkName = "29" />
    <neuron name = "24" type = "sensor" linkName = "32" />
    <neuron name = "25" type = "sensor" linkName = "33" />
    <neuron name = "26" type = "sensor" linkName = "36" />
    <neuron name = "27" type = "sensor" linkName = "37" />
    <neuron name = "28" type = "motor"  jointName = "0_1" />
    <neuron name = "29" type = "motor"  jointName = "1_2" />
    <neuron name = "30" type = "motor"  jointName = "2_3" />
    <neuron name = "31" type = "motor"  jointName = "3_4" />
    <neuron name = "32" type = "motor"  jointName = "4_5" />
    <neuron name = "33" type = "motor"  jointName = "5_6" />
    <neuron name = "34" type = "motor"  jointName = "6_7" />
    <neuron name = "35" type = "motor"  jointName = "7_8" />
    <neuron name = "36" type = "motor"  jointName = "8_9" />
    <neuron name = "37" type = "motor"  jointName = "9_10" />
    <neuron name = "38" type = "motor"  jointName = "1_11" />
    <neuron name = "39" type = "motor"  jointName = "11_12" />
    <neuron name = "40" type = "motor"  jointName = "12_13" />
    <neuron name = "41" type = "motor"  jointName = "13_14" />
    <neuron name = "42" type = "motor"  jointName = "14_15" />
    <neuron name = "43" type = "motor"  jointName = "15_16" />
    <neuron name = "44" type = "motor"  jointName = "16_17" />
    <neuron name = "45" type = "motor"  jointName = "17_18" />
    <neuron name = "46" type = "motor"  jointName = "18_19" />
    <neuron name = "47" type = "motor"  jointName = "1_20" />
    <neuron name = "48" type = "motor"  jointName = "20_21" />
    <neuron name = "49" type = "motor"  jointName = "21_22" />
    <neuron name = "50" type = "motor"  jointName = "22_23" />
    <neuron name = "51" type = "motor"  jointName = "23_24" />
    <neuron name = "52" type = "motor"  jointName = "24_25" />
    <neuron name = "53" type = "motor"  jointName = "25_26" />
    <neuron name = "54" type = "motor"  jointName = "26_27" />
    <neuron name = "55" type = "motor"  jointName = "27_28" />
    <neuron name = "56" type = "motor"  jointName = "1_29" />
    <neuron name = "57" type = "motor"  jointName = "29_30" />
    <neuron name = "58" type = "motor"  jointName = "30_31" />
    <neuron name = "59" type = "motor"  jointName = "31_32" />
    <neuron name = "60" type = "motor"  jointName = "32_33" />
    <neuron name = "61" type = "motor"  jointName = "33_34" />
    <neuron name = "62" type = "motor"  jointName = "34_35" />
    <neuron name = "63" type = "motor"  jointName = "35_36" />
    <neuron name = "64" type = "motor"  jointName = "36_37" />
    <synapse sourceNeuronName = "0" targetNeuronName = "28" weight = "-0.7358373194304222" />
    <synapse sourceNeuronName = "1" targetNeuronName = "28" weight = "0.7428540985856804" />
    <synapse sourceNeuronName = "2" targetNeuronName = "28" weight = "-0.7100059484528412" />
    <synapse sourceNeuronName = "3" targetNeuronName = "28" weight = "-0.3606868660369711" />
    <synapse sourceNeuronName = "4" targetNeuronName = "28" weight = "-0.0353547305936881" />
    <synapse sourceNeuronName = "5" targetNeuronName = "28" weight = "-0.1429080871426096" />
    <synapse sourceNeuronName = "6" targetNeuronName = "28" weight = "-0.600099946774288" />
    <synapse sourceNeuronName = "7" targetNeuronName = "28" weight = "-0.5203262354957061" />
    <synapse sourceNeuronName = "8" targetNeuronName = "28" weight = "0.18186912335861471" />
    <synapse sourceNeuronName = "9" targetNeuronName = "28" weight = "-0.39937516112642624" />
    <synapse sourceNeuronName = "10" targetNeuronName = "28" weight = "0.557697132207682" />
    <synapse sourceNeuronName = "11" targetNeuronName = "28" weight = "-0.21006345847718433" />
    <synapse sourceNeuronName = "12" targetNeuronName = "28" weight = "-0.2581496585921059" />
    <synapse sourceNeuronName = "13" targetNeuronName = "28" weight = "-0.7114070216620993" />
    <synapse sourceNeuronName = "14" targetNeuronName = "28" weight = "-0.1442702932385005" />
    <synapse sourceNeuronName = "15" targetNeuronName = "28" weight = "0.4312823257166396" />
    <synapse sourceNeuronName = "16" targetNeuronName = "28" weight = "0.8500271907148678" />
    <synapse sourceNeuronName = "17" targetNeuronName = "28" weight = "0.8699574568705142" />
    <synapse sourceNeuronName = "18" targetNeuronName = "28" weight = "-0.6836894799864759" />
    <synapse sourceNeuronName = "19" targetNeuronName = "28" weight = "0.9780786367689851" />
    <synapse sourceNeuronName = "20" targetNeuronName = "28" weight = "-0.7540357422631574" />
    <synapse sourceNeuronName = "21" targetNeuronName = "28" weight = "-0.6836450053199279" />
    <synapse sourceNeuronName = "22" targetNeuronName = "28" weight = "-0.25783113407250524" />
    <synapse sourceNeuronName = "23" targetNeuronName = "28" weight = "-0.43668969323283213" />
    <synapse sourceNeuronName = "24" targetNeuronName = "28" weight = "0.599752926699582" />
    <synapse sourceNeuronName = "25" targetNeuronName = "28" weight = "-0.9747676050281315" />
    <synapse sourceNeuronName = "26" targetNeuronName = "28" weight = "0.4646689233188339" />
    <synapse sourceNeuronName = "27" targetNeuronName = "28" weight = "0.011472457427795568" />
    <synapse sourceNeuronName = "0" targetNeuronName = "29" weight = "-0.3594210963236002" />
    <synapse sourceNeuronName = "1" targetNeuronName = "29" weight = "-0.8154758757233296" />
    <synapse sourceNeuronName = "2" targetNeuronName = "29" weight = "0.8494376632543259" />
    <synapse sourceNeuronName = "3" targetNeuronName = "29" weight = "0.7905689861553118" />
    <synapse sourceNeuronName = "4" targetNeuronName = "29" weight = "-0.5880695536902558" />
    <synapse sourceNeuronName = "5" targetNeuronName = "29" weight = "0.5984676362935131" />
    <synapse sourceNeuronName = "6" targetNeuronName = "29" weight = "0.14951791423569127" />
    <synapse sourceNeuronName = "7" targetNeuronName = "29" weight = "0.8195859543412174" />
    <synapse sourceNeuronName = "8" targetNeuronName = "29" weight = "-0.03704808337886312" />
    <synapse sourceNeuronName = "9" targetNeuronName = "29" weight = "-0.6521283596280572" />
    <synapse sourceNeuronName = "10" targetNeuronName = "29" weight = "0.9331114052954295" />
    <synapse sourceNeuronName = "11" targetNeuronName = "29" weight = "-0.34372786722906157" />
    <synapse sourceNeuronName = "12" targetNeuronName = "29" weight = "0.7165042276407674" />
    <synapse sourceNeuronName = "13" targetNeuronName = "29" weight = "0.8317715139845836" />
    <synapse sourceNeuronName = "14" targetNeuronName = "29" weight = "0.9328012719633736" />
    <synapse sourceNeuronName = "15" targetNeuronName = "29" weight = "-0.4636013959452441" />
    <synapse sourceNeuronName = "16" targetNeuronName = "29" weight = "0.8217145080498507" />
    <synapse sourceNeuronName = "17" targetNeuronName = "29" weight = "0.15286395663721652" />
    <synapse sourceNeuronName = "18" targetNeuronName = "29" weight = "0.1651139062836735" />
    <synapse sourceNeuronName = "19" targetNeuronName = "29" weight = "0.7500786251785359" />
    <synapse sourceNeuronName = "20" targetNeuronName = "29" weight = "-0.21993669267056526" />
    <synapse sourceNeuronName = "21" targetNeuronName = "29" weight = "-0.6936673303759442" />
    <synapse sourceNeuronName = "22" targetNeuronName = "29" weight = "-0.04133882129879374" />
    <synapse sourceNeuronName = "23" targetNeuronName = "29" weight = "-0.08693895228250259" />
    <synapse sourceNeuronName = "24" targetNeuronName = "29" weight = "-0.5772957303831681" />
    <synapse sourceNeuronName = "25" targetNeuronName = "29" weight = "0.7235538637701704" />
    <synapse sourceNeuronName = "26" targetNeuronName = "29" weight = "0.4516457473439741" />
    <synapse sourceNeuronName = "27" targetNeuronName = "29" weight = "0.17031106984173583" />
    <synapse sourceNeuronName = "0" targetNeuronName = "30" weight = "-0.8707189541197708" />
    <synapse sourceNeuronName = "1" targetNeuronName = "30" weight = "-0.945095457149719" />
    <synapse sourceNeuronName = "2" targetNeuronName = "30" weight = "-0.8272524792025651" />
    <synapse sourceNeuronName = "3" targetNeuronName = "30" weight = "-0.2656936842906352" />
    <synapse sourceNeuronName = "4" targetNeuronName = "30" weight = "-0.7154795940064049" />
    <synapse sourceNeuronName = "5" targetNeuronName = "30" weight = "0.6244270251912745" />
    <synapse sourceNeuronName = "6" targetNeuronName = "30" weight = "-0.1528075100892523" />
    <synapse sourceNeuronName = "7" targetNeuronName = "30" weight = "-0.9012226761702893" />
    <synapse sourceNeuronName = "8" targetNeuronName = "30" weight = "-0.006513955804245519" />
    <synapse sourceNeuronName = "9" targetNeuronName = "30" weight = "-0.3960089351042435" />
    <synapse sourceNeuronName = "10" targetNeuronName = "30" weight = "0.6124987589813016" />
    <synapse sourceNeuronName = "11" targetNeuronName = "30" weight = "-0.4111015828314828" />
    <synapse sourceNeuronName = "12" targetNeuronName = "30" weight = "0.31837495029333507" />
    <synapse sourceNeuronName = "13" targetNeuronName = "30" weight = "-0.6949430164779464" />
    <synapse sourceNeuronName = "14" targetNeuronName = "30" weight = "-0.28931983793425453" />
    <synapse sourceNeuronName = "15" targetNeuronName = "30" weight = "0.7083288247694173" />
    <synapse sourceNeuronName = "16" targetNeuronName = "30" weight = "0.7280479874555283" />
    <synapse sourceNeuronName = "17" targetNeuronName = "30" weight = "0.9512170827756958" />
    <synapse sourceNeuronName = "18" targetNeuronName = "30" weight = "-0.45299554092504013" />
    <synapse sourceNeuronName = "19" targetNeuronName = "30" weight = "-0.5364144012267804" />
    <synapse sourceNeuronName = "20" targetNeuronName = "30" weight = "0.16655814310466877" />
    <synapse sourceNeuronName = "21" targetNeuronName = "30" weight = "0.9443513985304095" />
    <synapse sourceNeuronName = "22" targetNeuronName = "30" weight = "0.5279576461670985" />
    <synapse sourceNeuronName = "23" targetNeuronName = "30" weight = "0.7318675471698297" />
    <synapse sourceNeuronName = "24" targetNeuronName = "30" weight = "0.3808093131502983" />
    <synapse sourceNeuronName = "25" targetNeuronName = "30" weight = "0.8878473385348113" />
    <synapse sourceNeuronName = "26" targetNeuronName = "30" weight = "-0.20111413282436263" />
    <synapse sourceNeuronName = "27" targetNeuronName = "30" weight = "0.042201206306313965" />
    <synapse sourceNeuronName = "0" targetNeuronName = "31" weight = "0.7186382587829432" />
    <synapse sourceNeuronName = "1" targetNeuronName = "31" weight = "0.5625520314226371" />
    <synapse sourceNeuronName = "2" targetNeuronName = "31" weight = "0.8874510473016386" />
    <synapse sourceNeuronName = "3" targetNeuronName = "31" weight = "-0.44050255245177183" />
    <synapse sourceNeuronName = "4" targetNeuronName = "31" weight = "-0.8322893396390685" />
    <synapse sourceNeuronName = "5" targetNeuronName = "31" weight = "0.21694595806731898" />
    <synapse sourceNeuronName = "6" targetNeuronName = "31" weight = "-0.655270934125294" />
    <synapse sourceNeuronName = "7" targetNeuronName = "31" weight = "0.8376359950811685" />
    <synapse sourceNeuronName = "8" targetNeuronName = "31" weight = "0.3665931598180099" />
    <synapse sourceNeuronName = "9" targetNeuronName = "31" weight = "0.19986369804542647" />
    <synapse sourceNeuronName = "10" targetNeuronName = "31" weight = "-0.12304978276510914" />
    <synapse sourceNeuronName = "11" targetNeuronName = "31" weight = "0.2714953317247695" />
    <synapse sourceNeuronName = "12" targetNeuronName = "31" weight = "0.030535867227345248" />
    <synapse sourceNeuronName = "13" targetNeuronName = "31" weight = "-0.574012400595131" />
    <synapse sourceNeuronName = "14" targetNeuronName = "31" weight = "0.6485152158551952" />
    <synapse sourceNeuronName = "15" targetNeuronName = "31" weight = "-0.3507879015486062" />
    <synapse sourceNeuronName = "16" targetNeuronName = "31" weight = "-0.5779363642811253" />
    <synapse sourceNeuronName = "17" targetNeuronName = "31" weight = "0.7905511684455977" />
    <synapse sourceNeuronName = "18" targetNeuronName = "31" weight = "-0.18439841724878714" />
    <synapse sourceNeuronName = "19" targetNeuronName = "31" weight = "-0.7636973955470987" />
    <synapse sourceNeuronName = "20" targetNeuronName = "31" weight = "0.5509666402450628" />
    <synapse sourceNeuronName = "21" targetNeuronName = "31" weight = "-0.8742822415951477" />
    <synapse sourceNeuronName = "22" targetNeuronName = "31" weight = "-0.9195974293896789" />
    <synapse sourceNeuronName = "23" targetNeuronName = "31" weight = "0.849928400253745" />
    <synapse sourceNeuronName = "24" targetNeuronName = "31" weight = "-0.5224994522229114" />
    <synapse sourceNeuronName = "25" targetNeuronName = "31" weight = "0.30591437262162136" />
    <synapse sourceNeuronName = "26" targetNeuronName = "31" weight = "-0.1699514261703472" />
    <synapse sourceNeuronName = "27" targetNeuronName = "31" weight = "0.5256931701124834" />
    <synapse sourceNeuronName = "0" targetNeuronName = "32" weight = "0.34523736700804064" />
    <synapse sourceNeuronName = "1" targetNeuronName = "32" weight = "-0.7718949036546001" />
    <synapse sourceNeuronName = "2" targetNeuronName = "32" weight = "-0.863910069323313" />
    <synapse sourceNeuronName = "3" targetNeuronName = "32" weight = "-0.6358973763333402" />
    <synapse sourceNeuronName = "4" targetNeuronName = "32" weight = "0.38853190494900014" />
    <synapse sourceNeuronName = "5" targetNeuronName = "32" weight = "-0.13971173741155019" />
    <synapse sourceNeuronName = "6" targetNeuronName = "32" weight = "0.6997266596763021" />
    <synapse sourceNeuronName = "7" targetNeuronName = "32" weight = "-0.5827255433586833" />
    <synapse sourceNeuronName = "8" targetNeuronName = "32" weight = "0.6403116138401739" />
    <synapse sourceNeuronName = "9" targetNeuronName = "32" weight = "-0.46050174720596004" />
    <synapse sourceNeuronName = "10" targetNeuronName = "32" weight = "-0.9583629471090258" />
    <synapse sourceNeuronName = "11" targetNeuronName = "32" weight = "-0.5576436348985621" />
    <synapse sourceNeuronName = "12" targetNeuronName = "32" weight = "-0.3906736334375873" />
    <synapse sourceNeuronName = "13" targetNeuronName = "32" weight = "-0.38975821748309003" />
    <synapse sourceNeuronName = "14" targetNeuronName = "32" weight = "-0.0958157440889249" />
    <synapse sourceNeuronName = "15" targetNeuronName = "32" weight = "0.6385510512445971" />
    <synapse sourceNeuronName = "16" targetNeuronName = "32" weight = "0.6292553213528251" />
    <synapse sourceNeuronName = "17" targetNeuronName = "32" weight = "0.06012184120627739" />
    <synapse sourceNeuronName = "18" targetNeuronName = "32" weight = "0.7901760749620221" />
    <synapse sourceNeuronName = "19" targetNeuronName = "32" weight = "0.774473521343517" />
    <synapse sourceNeuronName = "20" targetNeuronName = "32" weight = "-0.14354195060649078" />
    <synapse sourceNeuronName = "21" targetNeuronName = "32" weight = "0.9037576123757625" />
    <synapse sourceNeuronName = "22" targetNeuronName = "32" weight = "-0.330290314946204" />
    <synapse sourceNeuronName = "23" targetNeuronName = "32" weight = "0.8267969755161451" />
    <synapse sourceNeuronName = "24" targetNeuronName = "32" weight = "0.2851248546664771" />
    <synapse sourceNeuronName = "25" targetNeuronName = "32" weight = "-0.11347571908211074" />
    <synapse sourceNeuronName = "26" targetNeuronName = "32" weight = "-0.9120595699180465" />
    <synapse sourceNeuronName = "27" targetNeuronName = "32" weight = "-0.9111338095143757" />
    <synapse sourceNeuronName = "0" targetNeuronName = "33" weight = "-0.3057494264158822" />
    <synapse sourceNeuronName = "1" targetNeuronName = "33" weight = "-0.09041708665995563" />
    <synapse sourceNeuronName = "2" targetNeuronName = "33" weight = "-0.33455021419030095" />
    <synapse sourceNeuronName = "3" targetNeuronName = "33" weight = "0.7752912412130977" />
    <synapse sourceNeuronName = "4" targetNeuronName = "33" weight = "-0.6824988022316345" />
    <synapse sourceNeuronName = "5" targetNeuronName = "33" weight = "0.6883615626803137" />
    <synapse sourceNeuronName = "6" targetNeuronName = "33" weight = "0.5859919315520663" />
    <synapse sourceNeuronName = "7" targetNeuronName = "33" weight = "-0.14240706783346568" />
    <synapse sourceNeuronName = "8" targetNeuronName = "33" weight = "0.22546366851825206" />
    <synapse sourceNeuronName = "9" targetNeuronName = "33" weight = "-0.3087824895697884" />
    <synapse sourceNeuronName = "10" targetNeuronName = "33" weight = "0.8990777894751336" />
    <synapse sourceNeuronName = "11" targetNeuronName = "33" weight = "-0.7750884698010321" />
    <synapse sourceNeuronName = "12" targetNeuronName = "33" weight = "0.8422438791181643" />
    <synapse sourceNeuronName = "13" targetNeuronName = "33" weight = "-0.5413350436584659" />
    <synapse sourceNeuronName = "14" targetNeuronName = "33" weight = "0.3489535031007065" />
    <synapse sourceNeuronName = "15" targetNeuronName = "33" weight = "0.41348206507156937" />
    <synapse sourceNeuronName = "16" targetNeuronName = "33" weight = "0.4239026268294963" />
    <synapse sourceNeuronName = "17" targetNeuronName = "33" weight = "0.03102873721312549" />
    <synapse sourceNeuronName = "18" targetNeuronName = "33" weight = "0.898202897487195" />
    <synapse sourceNeuronName = "19" targetNeuronName = "33" weight = "-0.8393365695215078" />
    <synapse sourceNeuronName = "20" targetNeuronName = "33" weight = "-0.49077448774304444" />
    <synapse sourceNeuronName = "21" targetNeuronName = "33" weight = "-0.1656223204359899" />
    <synapse sourceNeuronName = "22" targetNeuronName = "33" weight = "-0.4927735271159972" />
    <synapse sourceNeuronName = "23" targetNeuronName = "33" weight = "-0.22203971966498393" />
    <synapse sourceNeuronName = "24" targetNeuronName = "33" weight = "-0.24733472486051777" />
    <synapse sourceNeuronName = "25" targetNeuronName = "33" weight = "-0.24784454275900214" />
    <synapse sourceNeuronName = "26" targetNeuronName = "33" weight = "-0.2881108629771234" />
    <synapse sourceNeuronName = "27" targetNeuronName = "33" weight = "0.7326300990326553" />
    <synapse sourceNeuronName = "0" targetNeuronName = "34" weight = "-0.963750516387593" />
    <synapse sourceNeuronName = "1" targetNeuronName = "34" weight = "0.42993108545186587" />
    <synapse sourceNeuronName = "2" targetNeuronName = "34" weight = "-0.7732168899387672" />
    <synapse sourceNeuronName = "3" targetNeuronName = "34" weight = "0.22847411363750103" />
    <synapse sourceNeuronName = "4" targetNeuronName = "34" weight = "-0.5122537903966202" />
    <synapse sourceNeuronName = "5" targetNeuronName = "34" weight = "-0.6167155058329052" />
    <synapse sourceNeuronName = "6" targetNeuronName = "34" weight = "-0.12774764852630982" />
    <synapse sourceNeuronName = "7" targetNeuronName = "34" weight = "0.3854868914416465" />
    <synapse sourceNeuronName = "8" targetNeuronName = "34" weight = "-0.9748760979779769" />
    <synapse sourceNeuronName = "9" targetNeuronName = "34" weight = "0.4338923639892682" />
    <synapse sourceNeuronName = "10" targetNeuronName = "34" weight = "0.1508343439812796" />
    <synapse sourceNeuronName = "11" targetNeuronName = "34" weight = "0.1351728356085402" />
    <synapse sourceNeuronName = "12" targetNeuronName = "34" weight = "0.7782197585966144" />
    <synapse sourceNeuronName = "13" targetNeuronName = "34" weight = "0.40948909373131803" />
    <synapse sourceNeuronName = "14" targetNeuronName = "34" weight = "0.5948656834181412" />
    <synapse sourceNeuronName = "15" targetNeuronName = "34" weight = "-0.9428237266756037" />
    <synapse sourceNeuronName = "16" targetNeuronName = "34" weight = "-0.7387643421627632" />
    <synapse sourceNeuronName = "17" targetNeuronName = "34" weight = "-0.7184094916363766" />
    <synapse sourceNeuronName = "18" targetNeuronName = "34" weight = "0.3977138339215751" />
    <synapse sourceNeuronName = "19" targetNeuronName = "34" weight = "-0.9886103194227018" />
    <synapse sourceNeuronName = "20" targetNeuronName = "34" weight = "0.052037295572735065" />
    <synapse sourceNeuronName = "21" targetNeuronName = "34" weight = "0.21520142782171603" />
    <synapse sourceNeuronName = "22" targetNeuronName = "34" weight = "0.21305382344734425" />
    <synapse sourceNeuronName = "23" targetNeuronName = "34" weight = "-0.5497839779369191" />
    <synapse sourceNeuronName = "24" targetNeuronName = "34" weight = "-0.840821517691128" />
    <synapse sourceNeuronName = "25" targetNeuronName = "34" weight = "0.6303962463626596" />
    <synapse sourceNeuronName = "26" targetNeuronName = "34" weight = "-0.543656514864169" />
    <synapse sourceNeuronName = "27" targetNeuronName = "34" weight = "-0.34851934231796333" />
    <synapse sourceNeuronName = "0" targetNeuronName = "35" weight = "0.22595839309163557" />
    <synapse sourceNeuronName = "1" targetNeuronName = "35" weight = "0.20423649374814934" />
    <synapse sourceNeuronName = "2" targetNeuronName = "35" weight = "-0.5934255112203024" />
    <synapse sourceNeuronName = "3" targetNeuronName = "35" weight = "-0.9819836295347764" />
    <synapse sourceNeuronName = "4" targetNeuronName = "35" weight = "0.6077995000239611" />
    <synapse sourceNeuronName = "5" targetNeuronName = "35" weight = "-0.08283326897739673" />
    <synapse sourceNeuronName = "6" targetNeuronName = "35" weight = "0.27060841366077604" />
    <synapse sourceNeuronName = "7" targetNeuronName = "35" weight = "0.06788000754642454" />
    <synapse sourceNeuronName = "8" targetNeuronName = "35" weight = "-0.15346786177899951" />
    <synapse sourceNeuronName = "9" targetNeuronName = "35" weight = "-0.5451906420884265" />
    <synapse sourceNeuronName = "10" targetNeuronName = "35" weight = "0.08547411940965488" />
    <synapse sourceNeuronName = "11" targetNeuronName = "35" weight = "0.08171302304457839" />
    <synapse sourceNeuronName = "12" targetNeuronName = "35" weight = "-0.8122350524007289" />
    <synapse sourceNeuronName = "13" targetNeuronName = "35" weight = "-0.6178110623000637" />
    <synapse sourceNeuronName = "14" targetNeuronName = "35" weight = "-0.5862601890298951" />
    <synapse sourceNeuronName = "15" targetNeuronName = "35" weight = "-0.4059300539105952" />
    <synapse sourceNeuronName = "16" targetNeuronName = "35" weight = "0.007535459879580486" />
    <synapse sourceNeuronName = "17" targetNeuronName = "35" weight = "-0.9079054160640665" />
    <synapse sourceNeuronName = "18" targetNeuronName = "35" weight = "0.742237569695672" />
    <synapse sourceNeuronName = "19" targetNeuronName = "35" weight = "0.2964520389951515" />
    <synapse sourceNeuronName = "20" targetNeuronName = "35" weight = "-0.6579316597884979" />
    <synapse sourceNeuronName = "21" targetNeuronName = "35" weight = "-0.026528180814753055" />
    <synapse sourceNeuronName = "22" targetNeuronName = "35" weight = "-0.9778032414650291" />
    <synapse sourceNeuronName = "23" targetNeuronName = "35" weight = "0.9465305935152197" />
    <synapse sourceNeuronName = "24" targetNeuronName = "35" weight = "-0.6217292961938408" />
    <synapse sourceNeuronName = "25" targetNeuronName = "35" weight = "0.5399429684524852" />
    <synapse sourceNeuronName = "26" targetNeuronName = "35" weight = "-0.11898574705909293" />
    <synapse sourceNeuronName = "27" targetNeuronName = "35" weight = "0.05780072190574259" />
    <synapse sourceNeuronName = "0" targetNeuronName = "36" weight = "-0.14632710275498395" />
    <synapse sourceNeuronName = "1" targetNeuronName = "36" weight = "0.9366514072955487" />
    <synapse sourceNeuronName = "2" targetNeuronName = "36" weight = "-0.4016504903033087" />
    <synapse sourceNeuronName = "3" targetNeuronName = "36" weight = "-0.1831230055147648" />
    <synapse sourceNeuronName = "4" targetNeuronName = "36" weight = "-0.13449561827803103" />
    <synapse sourceNeuronName = "5" targetNeuronName = "36" weight = "-0.4597014653723881" />
    <synapse sourceNeuronName = "6" targetNeuronName = "36" weight = "0.11363924269483294" />
    <synapse sourceNeuronName = "7" targetNeuronName = "36" weight = "0.35958199149857006" />
    <synapse sourceNeuronName = "8" targetNeuronName = "36" weight = "0.04955471225202612" />
    <synapse sourceNeuronName = "9" targetNeuronName = "36" weight = "-0.585931336320298" />
    <synapse sourceNeuronName = "10" targetNeuronName = "36" weight = "-0.19060717973090546" />
    <synapse sourceNeuronName = "11" targetNeuronName = "36" weight = "0.6961401120848063" />
    <synapse sourceNeuronName = "12" targetNeuronName = "36" weight = "-0.5608023431215099" />
    <synapse sourceNeuronName = "13" targetNeuronName = "36" weight = "-0.5546451772100023" />
    <synapse sourceNeuronName = "14" targetNeuronName = "36" weight = "0.042425664148319164" />
    <synapse sourceNeuronName = "15" targetNeuronName = "36" weight = "0.5792638299954" />
    <synapse sourceNeuronName = "16" targetNeuronName = "36" weight = "-0.41624902654514395" />
    <synapse sourceNeuronName = "17" targetNeuronName = "36" weight = "-0.37645187766804966" />
    <synapse sourceNeuronName = "18" targetNeuronName = "36" weight = "0.5265339333869381" />
    <synapse sourceNeuronName = "19" targetNeuronName = "36" weight = "0.047762471114977556" />
    <synapse sourceNeuronName = "20" targetNeuronName = "36" weight = "0.400421535117522" />
    <synapse sourceNeuronName = "21" targetNeuronName = "36" weight = "-0.6037757327800641" />
    <synapse sourceNeuronName = "22" targetNeuronName = "36" weight = "-0.08546611697478523" />
    <synapse sourceNeuronName = "23" targetNeuronName = "36" weight = "-0.2694177371071038" />
    <synapse sourceNeuronName = "24" targetNeuronName = "36" weight = "0.8952585996823155" />
    <synapse sourceNeuronName = "25" targetNeuronName = "36" weight = "0.001002991647096163" />
    <synapse sourceNeuronName = "26" targetNeuronName = "36" weight = "0.2305712419208319" />
    <synapse sourceNeuronName = "27" targetNeuronName = "36" weight = "0.40855723145964173" />
    <synapse sourceNeuronName = "0" targetNeuronName = "37" weight = "0.6285771725860589" />
    <synapse sourceNeuronName = "1" targetNeuronName = "37" weight = "-0.8518399914676575" />
    <synapse sourceNeuronName = "2" targetNeuronName = "37" weight = "-0.7822370884045486" />
    <synapse sourceNeuronName = "3" targetNeuronName = "37" weight = "0.17112857316424757" />
    <synapse sourceNeuronName = "4" targetNeuronName = "37" weight = "0.747624996217001" />
    <synapse sourceNeuronName = "5" targetNeuronName = "37" weight = "-0.19653581842433576" />
    <synapse sourceNeuronName = "6" targetNeuronName = "37" weight = "-0.39946442616325806" />
    <synapse sourceNeuronName = "7" targetNeuronName = "37" weight = "0.45522766932575376" />
    <synapse sourceNeuronName = "8" targetNeuronName = "37" weight = "0.24509795346198415" />
    <synapse sourceNeuronName = "9" targetNeuronName = "37" weight = "-0.9847201482205312" />
    <synapse sourceNeuronName = "10" targetNeuronName = "37" weight = "-0.12118161513484438" />
    <synapse sourceNeuronName = "11" targetNeuronName = "37" weight = "0.6022280787074168" />
    <synapse sourceNeuronName = "12" targetNeuronName = "37" weight = "-0.4571287442909835" />
    <synapse sourceNeuronName = "13" targetNeuronName = "37" weight = "0.4713410276174037" />
    <synapse sourceNeuronName = "14" targetNeuronName = "37" weight = "-0.8549470343105934" />
    <synapse sourceNeuronName = "15" targetNeuronName = "37" weight = "-0.28112250138214345" />
    <synapse sourceNeuronName = "16" targetNeuronName = "37" weight = "0.3183390774045185" />
    <synapse sourceNeuronName = "17" targetNeuronName = "37" weight = "0.5624599202757792" />
    <synapse sourceNeuronName = "18" targetNeuronName = "37" weight = "-0.5839712746060506" />
    <synapse sourceNeuronName = "19" targetNeuronName = "37" weight = "0.03383347988248886" />
    <synapse sourceNeuronName = "20" targetNeuronName = "37" weight = "-0.010008648660008168" />
    <synapse sourceNeuronName = "21" targetNeuronName = "37" weight = "0.21266647703475816" />
    <synapse sourceNeuronName = "22" targetNeuronName = "37" weight = "0.24684546713385913" />
    <synapse sourceNeuronName = "23" targetNeuronName = "37" weight = "-0.3185431639906371" />
    <synapse sourceNeuronName = "24" targetNeuronName = "37" weight = "-0.9932214686045635" />
    <synapse sourceNeuronName = "25" targetNeuronName = "37" weight = "0.12316644430692647" />
    <synapse sourceNeuronName = "26" targetNeuronName = "37" weight = "0.7041441990207116" />
    <synapse sourceNeuronName = "27" targetNeuronName = "37" weight = "0.614277965227737" />
    <synapse sourceNeuronName = "0" targetNeuronName = "38" weight = "0.3828786175741945" />
    <synapse sourceNeuronName = "1" targetNeuronName = "38" weight = "-0.29669567712785994" />
    <synapse sourceNeuronName = "2" targetNeuronName = "38" weight = "0.4367254647420862" />
    <synapse sourceNeuronName = "3" targetNeuronName = "38" weight = "-0.9534723426592446" />
    <synapse sourceNeuronName = "4" targetNeuronName = "38" weight = "-0.3297541564596518" />
    <synapse sourceNeuronName = "5" targetNeuronName = "38" weight = "-0.4062270097425782" />
    <synapse sourceNeuronName = "6" targetNeuronName = "38" weight = "0.8884663978247147" />
    <synapse sourceNeuronName = "7" targetNeuronName = "38" weight = "0.2254866000139959" />
    <synapse sourceNeuronName = "8" targetNeuronName = "38" weight = "0.13828818685965394" />
    <synapse sourceNeuronName = "9" targetNeuronName = "38" weight = "-0.44300335199117136" />
    <synapse sourceNeuronName = "10" targetNeuronName = "38" weight = "-0.11827624509356172" />
    <synapse sourceNeuronName = "11" targetNeuronName = "38" weight = "0.01216520907854135" />
    <synapse sourceNeuronName = "12" targetNeuronName = "38" weight = "0.5052597497114926" />
    <synapse sourceNeuronName = "13" targetNeuronName = "38" weight = "-0.8555438586444435" />
    <synapse sourceNeuronName = "14" targetNeuronName = "38" weight = "-0.12267196747052167" />
    <synapse sourceNeuronName = "15" targetNeuronName = "38" weight = "0.1797830586478688" />
    <synapse sourceNeuronName = "16" targetNeuronName = "38" weight = "-0.07518020216526522" />
    <synapse sourceNeuronName = "17" targetNeuronName = "38" weight = "-0.8130553891414087" />
    <synapse sourceNeuronName = "18" targetNeuronName = "38" weight = "0.13584794756794638" />
    <synapse sourceNeuronName = "19" targetNeuronName = "38" weight = "0.7843686150095841" />
    <synapse sourceNeuronName = "20" targetNeuronName = "38" weight = "-0.7898548171242255" />
    <synapse sourceNeuronName = "21" targetNeuronName = "38" weight = "-0.4641830986371609" />
    <synapse sourceNeuronName = "22" targetNeuronName = "38" weight = "-0.5266790483350157" />
    <synapse sourceNeuronName = "23" targetNeuronName = "38" weight = "0.539111858007534" />
    <synapse sourceNeuronName = "24" targetNeuronName = "38" weight = "-0.03416076943318047" />
    <synapse sourceNeuronName = "25" targetNeuronName = "38" weight = "0.7835735013059637" />
    <synapse sourceNeuronName = "26" targetNeuronName = "38" weight = "0.29913471100426503" />
    <synapse sourceNeuronName = "27" targetNeuronName = "38" weight = "0.919196718466025" />
    <synapse sourceNeuronName = "0" targetNeuronName = "39" weight = "-0.26822157419726156" />
    <synapse sourceNeuronName = "1" targetNeuronName = "39" weight = "-0.685440885049065" />
    <synapse sourceNeuronName = "2" targetNeuronName = "39" weight = "-0.39788016165309603" />
    <synapse sourceNeuronName = "3" targetNeuronName = "39" weight = "0.9078421027729728" />
    <synapse sourceNeuronName = "4" targetNeuronName = "39" weight = "0.6815598648139012" />
    <synapse sourceNeuronName = "5" targetNeuronName = "39" weight = "-0.5385928937582121" />
    <synapse sourceNeuronName = "6" targetNeuronName = "39" weight = "0.7934971813403455" />
    <synapse sourceNeuronName = "7" targetNeuronName = "39" weight = "-0.13131369684018113" />
    <synapse sourceNeuronName = "8" targetNeuronName = "39" weight = "0.7053158630794312" />
    <synapse sourceNeuronName = "9" targetNeuronName = "39" weight = "0.572753593078384" />
    <synapse sourceNeuronName = "10" targetNeuronName = "39" weight = "0.4151832935189541" />
    <synapse sourceNeuronName = "11" targetNeuronName = "39" weight = "0.020484906568498218" />
    <synapse sourceNeuronName = "12" targetNeuronName = "39" weight = "0.9773994399060344" />
    <synapse sourceNeuronName = "13" targetNeuronName = "39" weight = "-0.373629691026953" />
    <synapse sourceNeuronName = "14" targetNeuronName = "39" weight = "-0.21874590009531936" />
    <synapse sourceNeuronName = "15" targetNeuronName = "39" weight = "-0.9132237504528005" />
    <synapse sourceNeuronName = "16" targetNeuronName = "39" weight = "0.2953188355298699" />
    <synapse sourceNeuronName = "17" targetNeuronName = "39" weight = "0.2874856862204238" />
    <synapse sourceNeuronName = "18" targetNeuronName = "39" weight = "0.9173511977202524" />
    <synapse sourceNeuronName = "19" targetNeuronName = "39" weight = "0.7687440582173204" />
    <synapse sourceNeuronName = "20" targetNeuronName = "39" weight = "0.9681455343380447" />
    <synapse sourceNeuronName = "21" targetNeuronName = "39" weight = "0.05593522441644816" />
    <synapse sourceNeuronName = "22" targetNeuronName = "39" weight = "0.5629305326218821" />
    <synapse sourceNeuronName = "23" targetNeuronName = "39" weight = "0.38306009476171354" />
    <synapse sourceNeuronName = "24" targetNeuronName = "39" weight = "-0.5418065181003247" />
    <synapse sourceNeuronName = "25" targetNeuronName = "39" weight = "0.5761071439001746" />
    <synapse sourceNeuronName = "26" targetNeuronName = "39" weight = "0.2656713668181987" />
    <synapse sourceNeuronName = "27" targetNeuronName = "39" weight = "-0.3364238196992857" />
    <synapse sourceNeuronName = "0" targetNeuronName = "40" weight = "-0.34643083257910146" />
    <synapse sourceNeuronName = "1" targetNeuronName = "40" weight = "0.19801726901975614" />
    <synapse sourceNeuronName = "2" targetNeuronName = "40" weight = "-0.23261416021210568" />
    <synapse sourceNeuronName = "3" targetNeuronName = "40" weight = "-0.9621349154885641" />
    <synapse sourceNeuronName = "4" targetNeuronName = "40" weight = "-0.06919009542447618" />
    <synapse sourceNeuronName = "5" targetNeuronName = "40" weight = "-0.3676254010897251" />
    <synapse sourceNeuronName = "6" targetNeuronName = "40" weight = "0.5736085489291385" />
    <synapse sourceNeuronName = "7" targetNeuronName = "40" weight = "-0.6517956518077861" />
    <synapse sourceNeuronName = "8" targetNeuronName = "40" weight = "-0.07186497075281095" />
    <synapse sourceNeuronName = "9" targetNeuronName = "40" weight = "-0.7911187086461473" />
    <synapse sourceNeuronName = "10" targetNeuronName = "40" weight = "0.7628843322859575" />
    <synapse sourceNeuronName = "11" targetNeuronName = "40" weight = "0.050500939986004134" />
    <synapse sourceNeuronName = "12" targetNeuronName = "40" weight = "0.7595887274585456" />
    <synapse sourceNeuronName = "13" targetNeuronName = "40" weight = "0.21955690412978268" />
    <synapse sourceNeuronName = "14" targetNeuronName = "40" weight = "-0.03443307249712624" />
    <synapse sourceNeuronName = "15" targetNeuronName = "40" weight = "0.01953116492496365" />
    <synapse sourceNeuronName = "16" targetNeuronName = "40" weight = "-0.7203807461702736" />
    <synapse sourceNeuronName = "17" targetNeuronName = "40" weight = "-0.8745247793318986" />
    <synapse sourceNeuronName = "18" targetNeuronName = "40" weight = "-0.08504497680766354" />
    <synapse sourceNeuronName = "19" targetNeuronName = "40" weight = "0.15738494900505762" />
    <synapse sourceNeuronName = "20" targetNeuronName = "40" weight = "-0.34158899651593155" />
    <synapse sourceNeuronName = "21" targetNeuronName = "40" weight = "0.4735736083736757" />
    <synapse sourceNeuronName = "22" targetNeuronName = "40" weight = "-0.09726351896318963" />
    <synapse sourceNeuronName = "23" targetNeuronName = "40" weight = "0.06969406185474547" />
    <synapse sourceNeuronName = "24" targetNeuronName = "40" weight = "0.8701366408105877" />
    <synapse sourceNeuronName = "25" targetNeuronName = "40" weight = "-0.6830334381606242" />
    <synapse sourceNeuronName = "26" targetNeuronName = "40" weight = "0.11983354026380888" />
    <synapse sourceNeuronName = "27" targetNeuronName = "40" weight = "-0.01600380100808252" />
    <synapse sourceNeuronName = "0" targetNeuronName = "41" weight = "-0.7988825496978269" />
    <synapse sourceNeuronName = "1" targetNeuronName = "41" weight = "0.2380672578229608" />
    <synapse sourceNeuronName = "2" targetNeuronName = "41" weight = "0.8019715107548695" />
    <synapse sourceNeuronName = "3" targetNeuronName = "41" weight = "-0.5422738272095773" />
    <synapse sourceNeuronName = "4" targetNeuronName = "41" weight = "0.32300326506509913" />
    <synapse sourceNeuronName = "5" targetNeuronName = "41" weight = "-0.1539559692791539" />
    <synapse sourceNeuronName = "6" targetNeuronName = "41" weight = "0.5972019223217278" />
    <synapse sourceNeuronName = "7" targetNeuronName = "41" weight = "-0.8378286349601984" />
    <synapse sourceNeuronName = "8" targetNeuronName = "41" weight = "0.8289039559537479" />
    <synapse sourceNeuronName = "9" targetNeuronName = "41" weight = "-0.6264122053954726" />
    <synapse sourceNeuronName = "10" targetNeuronName = "41" weight = "0.7677137500466285" />
    <synapse sourceNeuronName = "11" targetNeuronName = "41" weight = "0.37297021871522773" />
    <synapse sourceNeuronName = "12" targetNeuronName = "41" weight = "-0.2144065500463077" />
    <synapse sourceNeuronName = "13" targetNeuronName = "41" weight = "-0.19217052194335915" />
    <synapse sourceNeuronName = "14" targetNeuronName = "41" weight = "0.3637476670452424" />
    <synapse sourceNeuronName = "15" targetNeuronName = "41" weight = "0.8983550813695629" />
    <synapse sourceNeuronName = "16" targetNeuronName = "41" weight = "-0.2593687407519838" />
    <synapse sourceNeuronName = "17" targetNeuronName = "41" weight = "-0.23615802321907053" />
    <synapse sourceNeuronName = "18" targetNeuronName = "41" weight = "0.4720683667310033" />
    <synapse sourceNeuronName = "19" targetNeuronName = "41" weight = "-0.13624020762011546" />
    <synapse sourceNeuronName = "20" targetNeuronName = "41" weight = "0.31534745152257915" />
    <synapse sourceNeuronName = "21" targetNeuronName = "41" weight = "0.07171398572427612" />
    <synapse sourceNeuronName = "22" targetNeuronName = "41" weight = "-0.8943234142504879" />
    <synapse sourceNeuronName = "23" targetNeuronName = "41" weight = "-0.22819869861512698" />
    <synapse sourceNeuronName = "24" targetNeuronName = "41" weight = "0.6369183150348638" />
    <synapse sourceNeuronName = "25" targetNeuronName = "41" weight = "0.4980093271294306" />
    <synapse sourceNeuronName = "26" targetNeuronName = "41" weight = "-0.44635722674372724" />
    <synapse sourceNeuronName = "27" targetNeuronName = "41" weight = "-0.5677933367137382" />
    <synapse sourceNeuronName = "0" targetNeuronName = "42" weight = "-0.38292674068154997" />
    <synapse sourceNeuronName = "1" targetNeuronName = "42" weight = "0.5485103454337257" />
    <synapse sourceNeuronName = "2" targetNeuronName = "42" weight = "0.7735539946624395" />
    <synapse sourceNeuronName = "3" targetNeuronName = "42" weight = "-0.9979168244516983" />
    <synapse sourceNeuronName = "4" targetNeuronName = "42" weight = "0.5021159089870724" />
    <synapse sourceNeuronName = "5" targetNeuronName = "42" weight = "-0.4269067984261814" />
    <synapse sourceNeuronName = "6" targetNeuronName = "42" weight = "0.09657003150075938" />
    <synapse sourceNeuronName = "7" targetNeuronName = "42" weight = "0.12336392693161402" />
    <synapse sourceNeuronName = "8" targetNeuronName = "42" weight = "0.17218684819394614" />
    <synapse sourceNeuronName = "9" targetNeuronName = "42" weight = "0.2729907543177079" />
    <synapse sourceNeuronName = "10" targetNeuronName = "42" weight = "-0.7235501234149577" />
    <synapse sourceNeuronName = "11" targetNeuronName = "42" weight = "0.9332797908882797" />
    <synapse sourceNeuronName = "12" targetNeuronName = "42" weight = "-0.7304862065602835" />
    <synapse sourceNeuronName = "13" targetNeuronName = "42" weight = "-0.9423302553827966" />
    <synapse sourceNeuronName = "14" targetNeuronName = "42" weight = "0.3200517473722686" />
    <synapse sourceNeuronName = "15" targetNeuronName = "42" weight = "0.6506729436901999" />
    <synapse sourceNeuronName = "16" targetNeuronName = "42" weight = "0.6134566523005032" />
    <synapse sourceNeuronName = "17" targetNeuronName = "42" weight = "0.3367630011069114" />
    <synapse sourceNeuronName = "18" targetNeuronName = "42" weight = "-0.7380699111649986" />
    <synapse sourceNeuronName = "19" targetNeuronName = "42" weight = "-0.4379398375336725" />
    <synapse sourceNeuronName = "20" targetNeuronName = "42" weight = "-0.21779961903733724" />
    <synapse sourceNeuronName = "21" targetNeuronName = "42" weight = "0.6569771726551425" />
    <synapse sourceNeuronName = "22" targetNeuronName = "42" weight = "0.1656334138353266" />
    <synapse sourceNeuronName = "23" targetNeuronName = "42" weight = "0.712864305142942" />
    <synapse sourceNeuronName = "24" targetNeuronName = "42" weight = "-0.2629869079260372" />
    <synapse sourceNeuronName = "25" targetNeuronName = "42" weight = "0.6300696181444252" />
    <synapse sourceNeuronName = "26" targetNeuronName = "42" weight = "-0.2852950893470594" />
    <synapse sourceNeuronName = "27" targetNeuronName = "42" weight = "-0.0975224891476234" />
    <synapse sourceNeuronName = "0" targetNeuronName = "43" weight = "0.7793480801382233" />
    <synapse sourceNeuronName = "1" targetNeuronName = "43" weight = "0.24246429719879914" />
    <synapse sourceNeuronName = "2" targetNeuronName = "43" weight = "0.45997672826496494" />
    <synapse sourceNeuronName = "3" targetNeuronName = "43" weight = "-0.05990554688554828" />
    <synapse sourceNeuronName = "4" targetNeuronName = "43" weight = "-0.5833133711064782" />
    <synapse sourceNeuronName = "5" targetNeuronName = "43" weight = "-0.3573257487250583" />
    <synapse sourceNeuronName = "6" targetNeuronName = "43" weight = "-0.4768921535455146" />
    <synapse sourceNeuronName = "7" targetNeuronName = "43" weight = "-0.17183941397774438" />
    <synapse sourceNeuronName = "8" targetNeuronName = "43" weight = "-0.012411389956536567" />
    <synapse sourceNeuronName = "9" targetNeuronName = "43" weight = "0.5277980827977717" />
    <synapse sourceNeuronName = "10" targetNeuronName = "43" weight = "-0.05393297043407186" />
    <synapse sourceNeuronName = "11" targetNeuronName = "43" weight = "0.22866522197130568" />
    <synapse sourceNeuronName = "12" targetNeuronName = "43" weight = "-0.11508514944340065" />
    <synapse sourceNeuronName = "13" targetNeuronName = "43" weight = "-0.5890375741840987" />
    <synapse sourceNeuronName = "14" targetNeuronName = "43" weight = "0.3890729372706996" />
    <synapse sourceNeuronName = "15" targetNeuronName = "43" weight = "0.9399434332038619" />
    <synapse sourceNeuronName = "16" targetNeuronName = "43" weight = "-0.3413536108662816" />
    <synapse sourceNeuronName = "17" targetNeuronName = "43" weight = "-0.42654590534301384" />
    <synapse sourceNeuronName = "18" targetNeuronName = "43" weight = "0.9859877171769873" />
    <synapse sourceNeuronName = "19" targetNeuronName = "43" weight = "0.32101367363438205" />
    <synapse sourceNeuronName = "20" targetNeuronName = "43" weight = "0.8982009588126108" />
    <synapse sourceNeuronName = "21" targetNeuronName = "43" weight = "0.9222527823256303" />
    <synapse sourceNeuronName = "22" targetNeuronName = "43" weight = "-0.3316309796861696" />
    <synapse sourceNeuronName = "23" targetNeuronName = "43" weight = "-0.23802856945708162" />
    <synapse sourceNeuronName = "24" targetNeuronName = "43" weight = "-0.3521967706470983" />
    <synapse sourceNeuronName = "25" targetNeuronName = "43" weight = "0.11843355808781686" />
    <synapse sourceNeuronName = "26" targetNeuronName = "43" weight = "-0.5916927766092901" />
    <synapse sourceNeuronName = "27" targetNeuronName = "43" weight = "-0.08749128801009531" />
    <synapse sourceNeuronName = "0" targetNeuronName = "44" weight = "0.9951067793650836" />
    <synapse sourceNeuronName = "1" targetNeuronName = "44" weight = "-0.6060778411361409" />
    <synapse sourceNeuronName = "2" targetNeuronName = "44" weight = "0.5570125996182835" />
    <synapse sourceNeuronName = "3" targetNeuronName = "44" weight = "-0.43318052429588394" />
    <synapse sourceNeuronName = "4" targetNeuronName = "44" weight = "0.2525317189638028" />
    <synapse sourceNeuronName = "5" targetNeuronName = "44" weight = "-0.46960173088004753" />
    <synapse sourceNeuronName = "6" targetNeuronName = "44" weight = "0.7503599183739811" />
    <synapse sourceNeuronName = "7" targetNeuronName = "44" weight = "0.24093530049816048" />
    <synapse sourceNeuronName = "8" targetNeuronName = "44" weight = "0.9658640283125037" />
    <synapse sourceNeuronName = "9" targetNeuronName = "44" weight = "0.5932203875633855" />
    <synapse sourceNeuronName = "10" targetNeuronName = "44" weight = "-0.7216582230070347" />
    <synapse sourceNeuronName = "11" targetNeuronName = "44" weight = "-0.10571839275930928" />
    <synapse sourceNeuronName = "12" targetNeuronName = "44" weight = "-0.5702160218523662" />
    <synapse sourceNeuronName = "13" targetNeuronName = "44" weight = "0.2889237425123834" />
    <synapse sourceNeuronName = "14" targetNeuronName = "44" weight = "-0.9469489516140295" />
    <synapse sourceNeuronName = "15" targetNeuronName = "44" weight = "-0.516871748969651" />
    <synapse sourceNeuronName = "16" targetNeuronName = "44" weight = "-0.2849581419767657" />
    <synapse sourceNeuronName = "17" targetNeuronName = "44" weight = "-0.7738233466448994" />
    <synapse sourceNeuronName = "18" targetNeuronName = "44" weight = "0.4844801690464271" />
    <synapse sourceNeuronName = "19" targetNeuronName = "44" weight = "0.06476385171666799" />
    <synapse sourceNeuronName = "20" targetNeuronName = "44" weight = "0.6205782121909822" />
    <synapse sourceNeuronName = "21" targetNeuronName = "44" weight = "-0.010474262824834879" />
    <synapse sourceNeuronName = "22" targetNeuronName = "44" weight = "0.6682659816106431" />
    <synapse sourceNeuronName = "23" targetNeuronName = "44" weight = "-0.9609628789313929" />
    <synapse sourceNeuronName = "24" targetNeuronName = "44" weight = "0.6929686051760375" />
    <synapse sourceNeuronName = "25" targetNeuronName = "44" weight = "0.8334647671976061" />
    <synapse sourceNeuronName = "26" targetNeuronName = "44" weight = "0.44027610985042975" />
    <synapse sourceNeuronName = "27" targetNeuronName = "44" weight = "-0.4043309677789835" />
    <synapse sourceNeuronName = "0" targetNeuronName = "45" weight = "0.2463472071253905" />
    <synapse sourceNeuronName = "1" targetNeuronName = "45" weight = "0.7937502572426192" />
    <synapse sourceNeuronName = "2" targetNeuronName = "45" weight = "-0.8216429805508478" />
    <synapse sourceNeuronName = "3" targetNeuronName = "45" weight = "-0.4022262766683855" />
    <synapse sourceNeuronName = "4" targetNeuronName = "45" weight = "-0.12514309688919778" />
    <synapse sourceNeuronName = "5" targetNeuronName = "45" weight = "0.07834453210436787" />
    <synapse sourceNeuronName = "6" targetNeuronName = "45" weight = "-0.40535887530026793" />
    <synapse sourceNeuronName = "7" targetNeuronName = "45" weight = "0.31166759442000114" />
    <synapse sourceNeuronName = "8" targetNeuronName = "45" weight = "0.4621861099883615" />
    <synapse sourceNeuronName = "9" targetNeuronName = "45" weight = "0.525746116977869" />
    <synapse sourceNeuronName = "10" targetNeuronName = "45" weight = "0.5791112252651172" />
    <synapse sourceNeuronName = "11" targetNeuronName = "45" weight = "-0.8701384795209519" />
    <synapse sourceNeuronName = "12" targetNeuronName = "45" weight = "0.8648831797268073" />
    <synapse sourceNeuronName = "13" targetNeuronName = "45" weight = "0.00017091960120385608" />
    <synapse sourceNeuronName = "14" targetNeuronName = "45" weight = "-0.015306327160198308" />
    <synapse sourceNeuronName = "15" targetNeuronName = "45" weight = "0.7166917380925861" />
    <synapse sourceNeuronName = "16" targetNeuronName = "45" weight = "0.8219892245919198" />
    <synapse sourceNeuronName = "17" targetNeuronName = "45" weight = "0.1372320444826267" />
    <synapse sourceNeuronName = "18" targetNeuronName = "45" weight = "0.6277890858598152" />
    <synapse sourceNeuronName = "19" targetNeuronName = "45" weight = "0.3112172966440445" />
    <synapse sourceNeuronName = "20" targetNeuronName = "45" weight = "-0.967744325374176" />
    <synapse sourceNeuronName = "21" targetNeuronName = "45" weight = "0.8666478209409292" />
    <synapse sourceNeuronName = "22" targetNeuronName = "45" weight = "-0.004358631909463284" />
    <synapse sourceNeuronName = "23" targetNeuronName = "45" weight = "0.2450724452225279" />
    <synapse sourceNeuronName = "24" targetNeuronName = "45" weight = "0.8335706750911354" />
    <synapse sourceNeuronName = "25" targetNeuronName = "45" weight = "0.13403314748684148" />
    <synapse sourceNeuronName = "26" targetNeuronName = "45" weight = "-0.021461784934278416" />
    <synapse sourceNeuronName = "27" targetNeuronName = "45" weight = "-0.6214471818398533" />
    <synapse sourceNeuronName = "0" targetNeuronName = "46" weight = "-0.4319842901524906" />
    <synapse sourceNeuronName = "1" targetNeuronName = "46" weight = "0.5865198898674493" />
    <synapse sourceNeuronName = "2" targetNeuronName = "46" weight = "-0.9939191593084571" />
    <synapse sourceNeuronName = "3" targetNeuronName = "46" weight = "0.29503359550614605" />
    <synapse sourceNeuronName = "4" targetNeuronName = "46" weight = "-0.2000670802094473" />
    <synapse sourceNeuronName = "5" targetNeuronName = "46" weight = "0.9188958212916007" />
    <synapse sourceNeuronName = "6" targetNeuronName = "46" weight = "0.7450089075805648" />
    <synapse sourceNeuronName = "7" targetNeuronName = "46" weight = "0.10007744396428242" />
    <synapse sourceNeuronName = "8" targetNeuronName = "46" weight = "-0.007108816346973912" />
    <synapse sourceNeuronName = "9" targetNeuronName = "46" weight = "-0.1413340760671098" />
    <synapse sourceNeuronName = "10" targetNeuronName = "46" weight = "0.7011570170161696" />
    <synapse sourceNeuronName = "11" targetNeuronName = "46" weight = "0.6760998401052674" />
    <synapse sourceNeuronName = "12" targetNeuronName = "46" weight = "-0.39745899443687027" />
    <synapse sourceNeuronName = "13" targetNeuronName = "46" weight = "0.2685436249988038" />
    <synapse sourceNeuronName = "14" targetNeuronName = "46" weight = "0.557502484346136" />
    <synapse sourceNeuronName = "15" targetNeuronName = "46" weight = "-0.9408591892957079" />
    <synapse sourceNeuronName = "16" targetNeuronName = "46" weight = "0.3939585899381026" />
    <synapse sourceNeuronName = "17" targetNeuronName = "46" weight = "-0.38358630270289695" />
    <synapse sourceNeuronName = "18" targetNeuronName = "46" weight = "0.15020966668391345" />
    <synapse sourceNeuronName = "19" targetNeuronName = "46" weight = "0.6478469287183628" />
    <synapse sourceNeuronName = "20" targetNeuronName = "46" weight = "-0.9020326652363142" />
    <synapse sourceNeuronName = "21" targetNeuronName = "46" weight = "-0.8280125243540393" />
    <synapse sourceNeuronName = "22" targetNeuronName = "46" weight = "-0.11359784810432849" />
    <synapse sourceNeuronName = "23" targetNeuronName = "46" weight = "0.8583549353634132" />
    <synapse sourceNeuronName = "24" targetNeuronName = "46" weight = "0.34494625680997104" />
    <synapse sourceNeuronName = "25" targetNeuronName = "46" weight = "0.3236162611908604" />
    <synapse sourceNeuronName = "26" targetNeuronName = "46" weight = "0.8183579454670666" />
    <synapse sourceNeuronName = "27" targetNeuronName = "46" weight = "0.2150081481794477" />
    <synapse sourceNeuronName = "0" targetNeuronName = "47" weight = "0.5511120994632233" />
    <synapse sourceNeuronName = "1" targetNeuronName = "47" weight = "0.9211926924553233" />
    <synapse sourceNeuronName = "2" targetNeuronName = "47" weight = "-0.9532041946449952" />
    <synapse sourceNeuronName = "3" targetNeuronName = "47" weight = "-0.8177810741196943" />
    <synapse sourceNeuronName = "4" targetNeuronName = "47" weight = "0.21220774979490797" />
    <synapse sourceNeuronName = "5" targetNeuronName = "47" weight = "0.870583856268148" />
    <synapse sourceNeuronName = "6" targetNeuronName = "47" weight = "0.5772857482380398" />
    <synapse sourceNeuronName = "7" targetNeuronName = "47" weight = "-0.7676778338780874" />
    <synapse sourceNeuronName = "8" targetNeuronName = "47" weight = "-0.20369305299736262" />
    <synapse sourceNeuronName = "9" targetNeuronName = "47" weight = "0.8007782870843327" />
    <synapse sourceNeuronName = "10" targetNeuronName = "47" weight = "0.5604204491288669" />
    <synapse sourceNeuronName = "11" targetNeuronName = "47" weight = "0.12806622356533115" />
    <synapse sourceNeuronName = "12" targetNeuronName = "47" weight = "-0.23628692295971376" />
    <synapse sourceNeuronName = "13" targetNeuronName = "47" weight = "-0.6015447089160624" />
    <synapse sourceNeuronName = "14" targetNeuronName = "47" weight = "-0.8028231352166051" />
    <synapse sourceNeuronName = "15" targetNeuronName = "47" weight = "-0.6499442756474385" />
    <synapse sourceNeuronName = "16" targetNeuronName = "47" weight = "0.8125215458028106" />
    <synapse sourceNeuronName = "17" targetNeuronName = "47" weight = "0.7028431190022595" />
    <synapse sourceNeuronName = "18" targetNeuronName = "47" weight = "-0.05335725581134465" />
    <synapse sourceNeuronName = "19" targetNeuronName = "47" weight = "-0.3515131656072896" />
    <synapse sourceNeuronName = "20" targetNeuronName = "47" weight = "0.1456816656276676" />
    <synapse sourceNeuronName = "21" targetNeuronName = "47" weight = "0.2198001074656868" />
    <synapse sourceNeuronName = "22" targetNeuronName = "47" weight = "-0.12627322229863158" />
    <synapse sourceNeuronName = "23" targetNeuronName = "47" weight = "0.647878879473436" />
    <synapse sourceNeuronName = "24" targetNeuronName = "47" weight = "0.9413655114610266" />
    <synapse sourceNeuronName = "25" targetNeuronName = "47" weight = "0.1986610093098724" />
    <synapse sourceNeuronName = "26" targetNeuronName = "47" weight = "0.3660232685723026" />
    <synapse sourceNeuronName = "27" targetNeuronName = "47" weight = "-0.831391534824053" />
    <synapse sourceNeuronName = "0" targetNeuronName = "48" weight = "-0.2861292967577431" />
    <synapse sourceNeuronName = "1" targetNeuronName = "48" weight = "-0.573399000025681" />
    <synapse sourceNeuronName = "2" targetNeuronName = "48" weight = "-0.5280968314952941" />
    <synapse sourceNeuronName = "3" targetNeuronName = "48" weight = "0.11153185629961015" />
    <synapse sourceNeuronName = "4" targetNeuronName = "48" weight = "0.1229360377624098" />
    <synapse sourceNeuronName = "5" targetNeuronName = "48" weight = "-0.08656054676880442" />
    <synapse sourceNeuronName = "6" targetNeuronName = "48" weight = "-0.6472022740927919" />
    <synapse sourceNeuronName = "7" targetNeuronName = "48" weight = "0.6712980953683478" />
    <synapse sourceNeuronName = "8" targetNeuronName = "48" weight = "0.4048092555190965" />
    <synapse sourceNeuronName = "9" targetNeuronName = "48" weight = "0.5066413997139165" />
    <synapse sourceNeuronName = "10" targetNeuronName = "48" weight = "-0.9009513781473226" />
    <synapse sourceNeuronName = "11" targetNeuronName = "48" weight = "0.30649807141247276" />
    <synapse sourceNeuronName = "12" targetNeuronName = "48" weight = "0.8007951787934877" />
    <synapse sourceNeuronName = "13" targetNeuronName = "48" weight = "0.9519723972410321" />
    <synapse sourceNeuronName = "14" targetNeuronName = "48" weight = "-0.9021464981682514" />
    <synapse sourceNeuronName = "15" targetNeuronName = "48" weight = "0.14604838750408433" />
    <synapse sourceNeuronName = "16" targetNeuronName = "48" weight = "-0.09968894321078459" />
    <synapse sourceNeuronName = "17" targetNeuronName = "48" weight = "0.6058290261093868" />
    <synapse sourceNeuronName = "18" targetNeuronName = "48" weight = "-0.1797014560122001" />
    <synapse sourceNeuronName = "19" targetNeuronName = "48" weight = "0.6077794098122706" />
    <synapse sourceNeuronName = "20" targetNeuronName = "48" weight = "-0.9369585179883104" />
    <synapse sourceNeuronName = "21" targetNeuronName = "48" weight = "-0.3234462856482867" />
    <synapse sourceNeuronName = "22" targetNeuronName = "48" weight = "0.1734565709065754" />
    <synapse sourceNeuronName = "23" targetNeuronName = "48" weight = "-0.5389272098716142" />
    <synapse sourceNeuronName = "24" targetNeuronName = "48" weight = "-0.22222483388165948" />
    <synapse sourceNeuronName = "25" targetNeuronName = "48" weight = "0.33331939587781134" />
    <synapse sourceNeuronName = "26" targetNeuronName = "48" weight = "-0.13303452438607644" />
    <synapse sourceNeuronName = "27" targetNeuronName = "48" weight = "-0.45961974063898814" />
    <synapse sourceNeuronName = "0" targetNeuronName = "49" weight = "-0.6771273782165912" />
    <synapse sourceNeuronName = "1" targetNeuronName = "49" weight = "-0.8592211373990726" />
    <synapse sourceNeuronName = "2" targetNeuronName = "49" weight = "0.42689183288174726" />
    <synapse sourceNeuronName = "3" targetNeuronName = "49" weight = "0.2914825236808094" />
    <synapse sourceNeuronName = "4" targetNeuronName = "49" weight = "-0.31981999727282484" />
    <synapse sourceNeuronName = "5" targetNeuronName = "49" weight = "-0.7619438556786065" />
    <synapse sourceNeuronName = "6" targetNeuronName = "49" weight = "-0.9217150239834182" />
    <synapse sourceNeuronName = "7" targetNeuronName = "49" weight = "-0.3610557940157544" />
    <synapse sourceNeuronName = "8" targetNeuronName = "49" weight = "0.3315042341091563" />
    <synapse sourceNeuronName = "9" targetNeuronName = "49" weight = "0.49700480057584007" />
    <synapse sourceNeuronName = "10" targetNeuronName = "49" weight = "0.4786842853669684" />
    <synapse sourceNeuronName = "11" targetNeuronName = "49" weight = "-0.7120469884843827" />
    <synapse sourceNeuronName = "12" targetNeuronName = "49" weight = "-0.7179704796974735" />
    <synapse sourceNeuronName = "13" targetNeuronName = "49" weight = "0.9194439558191754" />
    <synapse sourceNeuronName = "14" targetNeuronName = "49" weight = "0.322732316387738" />
    <synapse sourceNeuronName = "15" targetNeuronName = "49" weight = "-0.24534767008768643" />
    <synapse sourceNeuronName = "16" targetNeuronName = "49" weight = "-0.1644470851019666" />
    <synapse sourceNeuronName = "17" targetNeuronName = "49" weight = "0.5043245217258463" />
    <synapse sourceNeuronName = "18" targetNeuronName = "49" weight = "0.3261622318198423" />
    <synapse sourceNeuronName = "19" targetNeuronName = "49" weight = "-0.97113482432777" />
    <synapse sourceNeuronName = "20" targetNeuronName = "49" weight = "0.947946272885992" />
    <synapse sourceNeuronName = "21" targetNeuronName = "49" weight = "0.7000025398803233" />
    <synapse sourceNeuronName = "22" targetNeuronName = "49" weight = "0.13722864901725296" />
    <synapse sourceNeuronName = "23" targetNeuronName = "49" weight = "0.21622419458033892" />
    <synapse sourceNeuronName = "24" targetNeuronName = "49" weight = "0.5655345273494286" />
    <synapse sourceNeuronName = "25" targetNeuronName = "49" weight = "0.6106695772249882" />
    <synapse sourceNeuronName = "26" targetNeuronName = "49" weight = "-0.16694379633171486" />
    <synapse sourceNeuronName = "27" targetNeuronName = "49" weight = "-0.3408452628797598" />
    <synapse sourceNeuronName = "0" targetNeuronName = "50" weight = "0.286422330181042" />
    <synapse sourceNeuronName = "1" targetNeuronName = "50" weight = "0.8385992104039617" />
    <synapse sourceNeuronName = "2" targetNeuronName = "50" weight = "0.7872218631693" />
    <synapse sourceNeuronName = "3" targetNeuronName = "50" weight = "0.3273141002475506" />
    <synapse sourceNeuronName = "4" targetNeuronName = "50" weight = "0.8479588274823378" />
    <synapse sourceNeuronName = "5" targetNeuronName = "50" weight = "0.13121813659404746" />
    <synapse sourceNeuronName = "6" targetNeuronName = "50" weight = "-0.16735071472653362" />
    <synapse sourceNeuronName = "7" targetNeuronName = "50" weight = "-0.26938612413097496" />
    <synapse sourceNeuronName = "8" targetNeuronName = "50" weight = "0.776037324426825" />
    <synapse sourceNeuronName = "9" targetNeuronName = "50" weight = "-0.15355089870148708" />
    <synapse sourceNeuronName = "10" targetNeuronName = "50" weight = "-0.4692530497363452" />
    <synapse sourceNeuronName = "11" targetNeuronName = "50" weight = "-0.8410891679800987" />
    <synapse sourceNeuronName = "12" targetNeuronName = "50" weight = "0.05236549387574074" />
    <synapse sourceNeuronName = "13" targetNeuronName = "50" weight = "0.8323436790031389" />
    <synapse sourceNeuronName = "14" targetNeuronName = "50" weight = "0.012896451703773959" />
    <synapse sourceNeuronName = "15" targetNeuronName = "50" weight = "0.8747774976358644" />
    <synapse sourceNeuronName = "16" targetNeuronName = "50" weight = "0.037992741586722056" />
    <synapse sourceNeuronName = "17" targetNeuronName = "50" weight = "0.6406898516380302" />
    <synapse sourceNeuronName = "18" targetNeuronName = "50" weight = "0.8779719186645405" />
    <synapse sourceNeuronName = "19" targetNeuronName = "50" weight = "-0.6439498114924229" />
    <synapse sourceNeuronName = "20" targetNeuronName = "50" weight = "-0.9457999184325552" />
    <synapse sourceNeuronName = "21" targetNeuronName = "50" weight = "0.6888099873570281" />
    <synapse sourceNeuronName = "22" targetNeuronName = "50" weight = "0.8994799085769909" />
    <synapse sourceNeuronName = "23" targetNeuronName = "50" weight = "0.22785373517884477" />
    <synapse sourceNeuronName = "24" targetNeuronName = "50" weight = "0.5355899954217436" />
    <synapse sourceNeuronName = "25" targetNeuronName = "50" weight = "0.11108592304425113" />
    <synapse sourceNeuronName = "26" targetNeuronName = "50" weight = "-0.5425409536981589" />
    <synapse sourceNeuronName = "27" targetNeuronName = "50" weight = "-0.6735893607937677" />
    <synapse sourceNeuronName = "0" targetNeuronName = "51" weight = "0.607857083330426" />
    <synapse sourceNeuronName = "1" targetNeuronName = "51" weight = "-0.8780799357503881" />
    <synapse sourceNeuronName = "2" targetNeuronName = "51" weight = "0.38148124659712024" />
    <synapse sourceNeuronName = "3" targetNeuronName = "51" weight = "-0.8694936392230272" />
    <synapse sourceNeuronName = "4" targetNeuronName = "51" weight = "0.7272006958116921" />
    <synapse sourceNeuronName = "5" targetNeuronName = "51" weight = "0.06560443517757464" />
    <synapse sourceNeuronName = "6" targetNeuronName = "51" weight = "-0.2647811240084701" />
    <synapse sourceNeuronName = "7" targetNeuronName = "51" weight = "-0.7133283505831947" />
    <synapse sourceNeuronName = "8" targetNeuronName = "51" weight = "0.2356010009604721" />
    <synapse sourceNeuronName = "9" targetNeuronName = "51" weight = "-0.5286887892389096" />
    <synapse sourceNeuronName = "10" targetNeuronName = "51" weight = "0.7941073297789616" />
    <synapse sourceNeuronName = "11" targetNeuronName = "51" weight = "0.2868399973849989" />
    <synapse sourceNeuronName = "12" targetNeuronName = "51" weight = "0.5242289697982416" />
    <synapse sourceNeuronName = "13" targetNeuronName = "51" weight = "-0.8640709802806985" />
    <synapse sourceNeuronName = "14" targetNeuronName = "51" weight = "0.893146750214227" />
    <synapse sourceNeuronName = "15" targetNeuronName = "51" weight = "0.6436081952150723" />
    <synapse sourceNeuronName = "16" targetNeuronName = "51" weight = "-0.6175045868129212" />
    <synapse sourceNeuronName = "17" targetNeuronName = "51" weight = "0.705035255840746" />
    <synapse sourceNeuronName = "18" targetNeuronName = "51" weight = "-0.058533158185451795" />
    <synapse sourceNeuronName = "19" targetNeuronName = "51" weight = "-0.9681402358244231" />
    <synapse sourceNeuronName = "20" targetNeuronName = "51" weight = "-0.4065052466024326" />
    <synapse sourceNeuronName = "21" targetNeuronName = "51" weight = "0.05426962680877856" />
    <synapse sourceNeuronName = "22" targetNeuronName = "51" weight = "-0.1292687104670187" />
    <synapse sourceNeuronName = "23" targetNeuronName = "51" weight = "-0.1229433186246387" />
    <synapse sourceNeuronName = "24" targetNeuronName = "51" weight = "-0.28963799066524665" />
    <synapse sourceNeuronName = "25" targetNeuronName = "51" weight = "-0.6739101954062885" />
    <synapse sourceNeuronName = "26" targetNeuronName = "51" weight = "0.11924692600307396" />
    <synapse sourceNeuronName = "27" targetNeuronName = "51" weight = "0.5957500355394758" />
    <synapse sourceNeuronName = "0" targetNeuronName = "52" weight = "-0.09057674405781957" />
    <synapse sourceNeuronName = "1" targetNeuronName = "52" weight = "0.42370213405984836" />
    <synapse sourceNeuronName = "2" targetNeuronName = "52" weight = "0.24711694590154076" />
    <synapse sourceNeuronName = "3" targetNeuronName = "52" weight = "0.24509389045036056" />
    <synapse sourceNeuronName = "4" targetNeuronName = "52" weight = "0.3001491647058081" />
    <synapse sourceNeuronName = "5" targetNeuronName = "52" weight = "0.1253876766016162" />
    <synapse sourceNeuronName = "6" targetNeuronName = "52" weight = "-0.8952997303998647" />
    <synapse sourceNeuronName = "7" targetNeuronName = "52" weight = "0.15662767900565644" />
    <synapse sourceNeuronName = "8" targetNeuronName = "52" weight = "-0.3335197974292825" />
    <synapse sourceNeuronName = "9" targetNeuronName = "52" weight = "0.1647557686192649" />
    <synapse sourceNeuronName = "10" targetNeuronName = "52" weight = "0.18217159953872297" />
    <synapse sourceNeuronName = "11" targetNeuronName = "52" weight = "-0.6891811460556081" />
    <synapse sourceNeuronName = "12" targetNeuronName = "52" weight = "0.4092085419510374" />
    <synapse sourceNeuronName = "13" targetNeuronName = "52" weight = "0.5100262955120545" />
    <synapse sourceNeuronName = "14" targetNeuronName = "52" weight = "-0.022866527066530473" />
    <synapse sourceNeuronName = "15" targetNeuronName = "52" weight = "0.009947083425084102" />
    <synapse sourceNeuronName = "16" targetNeuronName = "52" weight = "-0.561180338659788" />
    <synapse sourceNeuronName = "17" targetNeuronName = "52" weight = "-0.8722419778609938" />
    <synapse sourceNeuronName = "18" targetNeuronName = "52" weight = "0.7732000183309544" />
    <synapse sourceNeuronName = "19" targetNeuronName = "52" weight = "-0.6186014787417464" />
    <synapse sourceNeuronName = "20" targetNeuronName = "52" weight = "0.543368587244691" />
    <synapse sourceNeuronName = "21" targetNeuronName = "52" weight = "-0.8210802650891742" />
    <synapse sourceNeuronName = "22" targetNeuronName = "52" weight = "0.04072983927692708" />
    <synapse sourceNeuronName = "23" targetNeuronName = "52" weight = "-0.8974634604062264" />
    <synapse sourceNeuronName = "24" targetNeuronName = "52" weight = "-0.6072460212097017" />
    <synapse sourceNeuronName = "25" targetNeuronName = "52" weight = "0.3366530198819724" />
    <synapse sourceNeuronName = "26" targetNeuronName = "52" weight = "-0.1709418579768076" />
    <synapse sourceNeuronName = "27" targetNeuronName = "52" weight = "-0.8425873435514126" />
    <synapse sourceNeuronName = "0" targetNeuronName = "53" weight = "0.9727685881541268" />
    <synapse sourceNeuronName = "1" targetNeuronName = "53" weight = "-0.3701884110718918" />
    <synapse sourceNeuronName = "2" targetNeuronName = "53" weight = "0.03710552976136006" />
    <synapse sourceNeuronName = "3" targetNeuronName = "53" weight = "0.24122400822270484" />
    <synapse sourceNeuronName = "4" targetNeuronName = "53" weight = "0.3555795268102697" />
    <synapse sourceNeuronName = "5" targetNeuronName = "53" weight = "-0.7175541025800269" />
    <synapse sourceNeuronName = "6" targetNeuronName = "53" weight = "-0.4385172770682677" />
    <synapse sourceNeuronName = "7" targetNeuronName = "53" weight = "0.729398783185407" />
    <synapse sourceNeuronName = "8" targetNeuronName = "53" weight = "-0.972589020455789" />
    <synapse sourceNeuronName = "9" targetNeuronName = "53" weight = "0.48828441585857885" />
    <synapse sourceNeuronName = "10" targetNeuronName = "53" weight = "0.5271681390871104" />
    <synapse sourceNeuronName = "11" targetNeuronName = "53" weight = "0.618297343155725" />
    <synapse sourceNeuronName = "12" targetNeuronName = "53" weight = "-0.4293477818433331" />
    <synapse sourceNeuronName = "13" targetNeuronName = "53" weight = "-0.5725091407818039" />
    <synapse sourceNeuronName = "14" targetNeuronName = "53" weight = "0.1330645939977535" />
    <synapse sourceNeuronName = "15" targetNeuronName = "53" weight = "0.7349369810831174" />
    <synapse sourceNeuronName = "16" targetNeuronName = "53" weight = "-0.30039609847922955" />
    <synapse sourceNeuronName = "17" targetNeuronName = "53" weight = "0.11822758068438755" />
    <synapse sourceNeuronName = "18" targetNeuronName = "53" weight = "-0.29612766487252395" />
    <synapse sourceNeuronName = "19" targetNeuronName = "53" weight = "-0.29063230192027145" />
    <synapse sourceNeuronName = "20" targetNeuronName = "53" weight = "-0.9708595484838043" />
    <synapse sourceNeuronName = "21" targetNeuronName = "53" weight = "0.22073102657294896" />
    <synapse sourceNeuronName = "22" targetNeuronName = "53" weight = "-0.5459787194508732" />
    <synapse sourceNeuronName = "23" targetNeuronName = "53" weight = "0.4696207449426306" />
    <synapse sourceNeuronName = "24" targetNeuronName = "53" weight = "0.5821660928206318" />
    <synapse sourceNeuronName = "25" targetNeuronName = "53" weight = "-0.27315733913039586" />
    <synapse sourceNeuronName = "26" targetNeuronName = "53" weight = "0.8786125158927909" />
    <synapse sourceNeuronName = "27" targetNeuronName = "53" weight = "0.577593285950899" />
    <synapse sourceNeuronName = "0" targetNeuronName = "54" weight = "0.5358267838759301" />
    <synapse sourceNeuronName = "1" targetNeuronName = "54" weight = "-0.8654323768735261" />
    <synapse sourceNeuronName = "2" targetNeuronName = "54" weight = "-0.45075667014423937" />
    <synapse sourceNeuronName = "3" targetNeuronName = "54" weight = "-0.8043540145955832" />
    <synapse sourceNeuronName = "4" targetNeuronName = "54" weight = "0.96627564807734" />
    <synapse sourceNeuronName = "5" targetNeuronName = "54" weight = "-0.6396558380064643" />
    <synapse sourceNeuronName = "6" targetNeuronName = "54" weight = "-0.9390806555555442" />
    <synapse sourceNeuronName = "7" targetNeuronName = "54" weight = "0.14887560839950198" />
    <synapse sourceNeuronName = "8" targetNeuronName = "54" weight = "-0.6597536469497549" />
    <synapse sourceNeuronName = "9" targetNeuronName = "54" weight = "-0.1842755792590589" />
    <synapse sourceNeuronName = "10" targetNeuronName = "54" weight = "0.6219651938651498" />
    <synapse sourceNeuronName = "11" targetNeuronName = "54" weight = "0.8195379455419118" />
    <synapse sourceNeuronName = "12" targetNeuronName = "54" weight = "0.35538915849077357" />
    <synapse sourceNeuronName = "13" targetNeuronName = "54" weight = "-0.3896899802060976" />
    <synapse sourceNeuronName = "14" targetNeuronName = "54" weight = "0.47100368525681113" />
    <synapse sourceNeuronName = "15" targetNeuronName = "54" weight = "0.9123167410416355" />
    <synapse sourceNeuronName = "16" targetNeuronName = "54" weight = "-0.7592399087158423" />
    <synapse sourceNeuronName = "17" targetNeuronName = "54" weight = "0.205050863777811" />
    <synapse sourceNeuronName = "18" targetNeuronName = "54" weight = "-0.3374833209608601" />
    <synapse sourceNeuronName = "19" targetNeuronName = "54" weight = "-0.8840254780240773" />
    <synapse sourceNeuronName = "20" targetNeuronName = "54" weight = "0.8797241890518945" />
    <synapse sourceNeuronName = "21" targetNeuronName = "54" weight = "-0.6588835870369047" />
    <synapse sourceNeuronName = "22" targetNeuronName = "54" weight = "0.49891925027013473" />
    <synapse sourceNeuronName = "23" targetNeuronName = "54" weight = "-0.22241993246711012" />
    <synapse sourceNeuronName = "24" targetNeuronName = "54" weight = "0.21304681969519512" />
    <synapse sourceNeuronName = "25" targetNeuronName = "54" weight = "-0.41577037917819215" />
    <synapse sourceNeuronName = "26" targetNeuronName = "54" weight = "0.6189068830989917" />
    <synapse sourceNeuronName = "27" targetNeuronName = "54" weight = "0.13817968833473748" />
    <synapse sourceNeuronName = "0" targetNeuronName = "55" weight = "0.36326089324223965" />
    <synapse sourceNeuronName = "1" targetNeuronName = "55" weight = "-0.9561907172204369" />
    <synapse sourceNeuronName = "2" targetNeuronName = "55" weight = "0.7135761641705651" />
    <synapse sourceNeuronName = "3" targetNeuronName = "55" weight = "-0.76903981362004" />
    <synapse sourceNeuronName = "4" targetNeuronName = "55" weight = "0.009726584424055496" />
    <synapse sourceNeuronName = "5" targetNeuronName = "55" weight = "-0.8311799126902835" />
    <synapse sourceNeuronName = "6" targetNeuronName = "55" weight = "-0.016143167259732083" />
    <synapse sourceNeuronName = "7" targetNeuronName = "55" weight = "-0.7774242080743519" />
    <synapse sourceNeuronName = "8" targetNeuronName = "55" weight = "-0.7976012316661383" />
    <synapse sourceNeuronName = "9" targetNeuronName = "55" weight = "-0.7890395850089862" />
    <synapse sourceNeuronName = "10" targetNeuronName = "55" weight = "-0.46304454910823756" />
    <synapse sourceNeuronName = "11" targetNeuronName = "55" weight = "0.05387259555884971" />
    <synapse sourceNeuronName = "12" targetNeuronName = "55" weight = "-0.758269056877056" />
    <synapse sourceNeuronName = "13" targetNeuronName = "55" weight = "-0.305846450933805" />
    <synapse sourceNeuronName = "14" targetNeuronName = "55" weight = "0.8717294199457375" />
    <synapse sourceNeuronName = "15" targetNeuronName = "55" weight = "-0.7686486034776614" />
    <synapse sourceNeuronName = "16" targetNeuronName = "55" weight = "0.10983923797013184" />
    <synapse sourceNeuronName = "17" targetNeuronName = "55" weight = "-0.40333784944900075" />
    <synapse sourceNeuronName = "18" targetNeuronName = "55" weight = "0.7703898372242477" />
    <synapse sourceNeuronName = "19" targetNeuronName = "55" weight = "0.6009636825659526" />
    <synapse sourceNeuronName = "20" targetNeuronName = "55" weight = "0.8191499903711901" />
    <synapse sourceNeuronName = "21" targetNeuronName = "55" weight = "0.26252884088443307" />
    <synapse sourceNeuronName = "22" targetNeuronName = "55" weight = "0.4861038555008559" />
    <synapse sourceNeuronName = "23" targetNeuronName = "55" weight = "0.3101986720790808" />
    <synapse sourceNeuronName = "24" targetNeuronName = "55" weight = "0.38795774110681536" />
    <synapse sourceNeuronName = "25" targetNeuronName = "55" weight = "0.8818905836075257" />
    <synapse sourceNeuronName = "26" targetNeuronName = "55" weight = "0.39482823371187026" />
    <synapse sourceNeuronName = "27" targetNeuronName = "55" weight = "-0.5174962924211939" />
    <synapse sourceNeuronName = "0" targetNeuronName = "56" weight = "0.8106518337705668" />
    <synapse sourceNeuronName = "1" targetNeuronName = "56" weight = "0.24414547832129663" />
    <synapse sourceNeuronName = "2" targetNeuronName = "56" weight = "0.1828568894805458" />
    <synapse sourceNeuronName = "3" targetNeuronName = "56" weight = "-0.45694760075294627" />
    <synapse sourceNeuronName = "4" targetNeuronName = "56" weight = "0.8284523751112687" />
    <synapse sourceNeuronName = "5" targetNeuronName = "56" weight = "-0.8755662921232128" />
    <synapse sourceNeuronName = "6" targetNeuronName = "56" weight = "0.14115617751428622" />
    <synapse sourceNeuronName = "7" targetNeuronName = "56" weight = "-0.5910210699010536" />
    <synapse sourceNeuronName = "8" targetNeuronName = "56" weight = "-0.6143218916962931" />
    <synapse sourceNeuronName = "9" targetNeuronName = "56" weight = "0.8008914309925701" />
    <synapse sourceNeuronName = "10" targetNeuronName = "56" weight = "-0.8525102316753637" />
    <synapse sourceNeuronName = "11" targetNeuronName = "56" weight = "-0.7471396643368531" />
    <synapse sourceNeuronName = "12" targetNeuronName = "56" weight = "0.057398522270194485" />
    <synapse sourceNeuronName = "13" targetNeuronName = "56" weight = "-0.19387496344073352" />
    <synapse sourceNeuronName = "14" targetNeuronName = "56" weight = "0.5733911668347986" />
    <synapse sourceNeuronName = "15" targetNeuronName = "56" weight = "0.623965198774584" />
    <synapse sourceNeuronName = "16" targetNeuronName = "56" weight = "0.9536032166660204" />
    <synapse sourceNeuronName = "17" targetNeuronName = "56" weight = "-0.6339829266161903" />
    <synapse sourceNeuronName = "18" targetNeuronName = "56" weight = "0.5491026244982253" />
    <synapse sourceNeuronName = "19" targetNeuronName = "56" weight = "-0.4143562914635124" />
    <synapse sourceNeuronName = "20" targetNeuronName = "56" weight = "0.6061713367521251" />
    <synapse sourceNeuronName = "21" targetNeuronName = "56" weight = "-0.41955069910829734" />
    <synapse sourceNeuronName = "22" targetNeuronName = "56" weight = "0.8427518366533235" />
    <synapse sourceNeuronName = "23" targetNeuronName = "56" weight = "0.18717145524800172" />
    <synapse sourceNeuronName = "24" targetNeuronName = "56" weight = "-0.8244404764586883" />
    <synapse sourceNeuronName = "25" targetNeuronName = "56" weight = "-0.6857185507284429" />
    <synapse sourceNeuronName = "26" targetNeuronName = "56" weight = "-0.400767818555696" />
    <synapse sourceNeuronName = "27" targetNeuronName = "56" weight = "0.16658000125821282" />
    <synapse sourceNeuronName = "0" targetNeuronName = "57" weight = "-0.3153779092787472" />
    <synapse sourceNeuronName = "1" targetNeuronName = "57" weight = "0.7042210623090472" />
    <synapse sourceNeuronName = "2" targetNeuronName = "57" weight = "-0.8719496627244685" />
    <synapse sourceNeuronName = "3" targetNeuronName = "57" weight = "0.4184209285616527" />
    <synapse sourceNeuronName = "4" targetNeuronName = "57" weight = "0.5700476984813889" />
    <synapse sourceNeuronName = "5" targetNeuronName = "57" weight = "0.6939403057340359" />
    <synapse sourceNeuronName = "6" targetNeuronName = "57" weight = "0.490178863729382" />
    <synapse sourceNeuronName = "7" targetNeuronName = "57" weight = "0.5074612819671991" />
    <synapse sourceNeuronName = "8" targetNeuronName = "57" weight = "-0.8121876784609336" />
    <synapse sourceNeuronName = "9" targetNeuronName = "57" weight = "-0.7545265938984982" />
    <synapse sourceNeuronName = "10" targetNeuronName = "57" weight = "-0.03764813704975345" />
    <synapse sourceNeuronName = "11" targetNeuronName = "57" weight = "0.9124391788289168" />
    <synapse sourceNeuronName = "12" targetNeuronName = "57" weight = "-0.5830150248628181" />
    <synapse sourceNeuronName = "13" targetNeuronName = "57" weight = "0.5126488809099912" />
    <synapse sourceNeuronName = "14" targetNeuronName = "57" weight = "-0.750973214868923" />
    <synapse sourceNeuronName = "15" targetNeuronName = "57" weight = "-0.6970309044933991" />
    <synapse sourceNeuronName = "16" targetNeuronName = "57" weight = "-0.035933679256656026" />
    <synapse sourceNeuronName = "17" targetNeuronName = "57" weight = "0.9260731327686598" />
    <synapse sourceNeuronName = "18" targetNeuronName = "57" weight = "-0.042660489617421415" />
    <synapse sourceNeuronName = "19" targetNeuronName = "57" weight = "0.367644355805979" />
    <synapse sourceNeuronName = "20" targetNeuronName = "57" weight = "-0.2520022769509309" />
    <synapse sourceNeuronName = "21" targetNeuronName = "57" weight = "-0.6552999188844022" />
    <synapse sourceNeuronName = "22" targetNeuronName = "57" weight = "0.7424684622194475" />
    <synapse sourceNeuronName = "23" targetNeuronName = "57" weight = "-0.16932856890609616" />
    <synapse sourceNeuronName = "24" targetNeuronName = "57" weight = "0.888713648791446" />
    <synapse sourceNeuronName = "25" targetNeuronName = "57" weight = "-0.8256728560102595" />
    <synapse sourceNeuronName = "26" targetNeuronName = "57" weight = "-0.996244426385573" />
    <synapse sourceNeuronName = "27" targetNeuronName = "57" weight = "0.8995948350650584" />
    <synapse sourceNeuronName = "0" targetNeuronName = "58" weight = "-0.03413939760791318" />
    <synapse sourceNeuronName = "1" targetNeuronName = "58" weight = "-0.529931362308455" />
    <synapse sourceNeuronName = "2" targetNeuronName = "58" weight = "-0.5108712963264384" />
    <synapse sourceNeuronName = "3" targetNeuronName = "58" weight = "0.018941750145561542" />
    <synapse sourceNeuronName = "4" targetNeuronName = "58" weight = "0.9444230695189655" />
    <synapse sourceNeuronName = "5" targetNeuronName = "58" weight = "0.7180244275126844" />
    <synapse sourceNeuronName = "6" targetNeuronName = "58" weight = "-0.4722283319371152" />
    <synapse sourceNeuronName = "7" targetNeuronName = "58" weight = "-0.7377172675174788" />
    <synapse sourceNeuronName = "8" targetNeuronName = "58" weight = "-0.8612627684793175" />
    <synapse sourceNeuronName = "9" targetNeuronName = "58" weight = "-0.8983679851024091" />
    <synapse sourceNeuronName = "10" targetNeuronName = "58" weight = "-0.1054629524785835" />
    <synapse sourceNeuronName = "11" targetNeuronName = "58" weight = "0.6894562042619101" />
    <synapse sourceNeuronName = "12" targetNeuronName = "58" weight = "0.452763080606978" />
    <synapse sourceNeuronName = "13" targetNeuronName = "58" weight = "-0.7208247665115337" />
    <synapse sourceNeuronName = "14" targetNeuronName = "58" weight = "0.5050495209414159" />
    <synapse sourceNeuronName = "15" targetNeuronName = "58" weight = "-0.287722736868695" />
    <synapse sourceNeuronName = "16" targetNeuronName = "58" weight = "-0.9005045538436742" />
    <synapse sourceNeuronName = "17" targetNeuronName = "58" weight = "-0.6201335411606552" />
    <synapse sourceNeuronName = "18" targetNeuronName = "58" weight = "-0.4081722851410894" />
    <synapse sourceNeuronName = "19" targetNeuronName = "58" weight = "0.10797176126979768" />
    <synapse sourceNeuronName = "20" targetNeuronName = "58" weight = "-0.48736812042298405" />
    <synapse sourceNeuronName = "21" targetNeuronName = "58" weight = "0.3486999936259578" />
    <synapse sourceNeuronName = "22" targetNeuronName = "58" weight = "-0.3591220937905195" />
    <synapse sourceNeuronName = "23" targetNeuronName = "58" weight = "-0.13257990684510368" />
    <synapse sourceNeuronName = "24" targetNeuronName = "58" weight = "0.30430305214235376" />
    <synapse sourceNeuronName = "25" targetNeuronName = "58" weight = "0.5126595758564925" />
    <synapse sourceNeuronName = "26" targetNeuronName = "58" weight = "0.15395535832631158" />
    <synapse sourceNeuronName = "27" targetNeuronName = "58" weight = "0.9677301473514799" />
    <synapse sourceNeuronName = "0" targetNeuronName = "59" weight = "-0.8911302137470072" />
    <synapse sourceNeuronName = "1" targetNeuronName = "59" weight = "-0.8070495419178649" />
    <synapse sourceNeuronName = "2" targetNeuronName = "59" weight = "-0.6094642330248616" />
    <synapse sourceNeuronName = "3" targetNeuronName = "59" weight = "-0.9150403501143392" />
    <synapse sourceNeuronName = "4" targetNeuronName = "59" weight = "-0.4854001750478396" />
    <synapse sourceNeuronName = "5" targetNeuronName = "59" weight = "-0.7314255945239894" />
    <synapse sourceNeuronName = "6" targetNeuronName = "59" weight = "0.9623126839662888" />
    <synapse sourceNeuronName = "7" targetNeuronName = "59" weight = "0.9617708427478462" />
    <synapse sourceNeuronName = "8" targetNeuronName = "59" weight = "0.6281323193721606" />
    <synapse sourceNeuronName = "9" targetNeuronName = "59" weight = "0.9382706251987831" />
    <synapse sourceNeuronName = "10" targetNeuronName = "59" weight = "0.5636505816757653" />
    <synapse sourceNeuronName = "11" targetNeuronName = "59" weight = "0.1950028045375629" />
    <synapse sourceNeuronName = "12" targetNeuronName = "59" weight = "-0.9523488545345251" />
    <synapse sourceNeuronName = "13" targetNeuronName = "59" weight = "0.9154370791903061" />
    <synapse sourceNeuronName = "14" targetNeuronName = "59" weight = "0.2522623876424481" />
    <synapse sourceNeuronName = "15" targetNeuronName = "59" weight = "-0.5471320592863722" />
    <synapse sourceNeuronName = "16" targetNeuronName = "59" weight = "-0.14910955126858427" />
    <synapse sourceNeuronName = "17" targetNeuronName = "59" weight = "-0.9227821769161817" />
    <synapse sourceNeuronName = "18" targetNeuronName = "59" weight = "0.7672440614573501" />
    <synapse sourceNeuronName = "19" targetNeuronName = "59" weight = "-0.4076488474586124" />
    <synapse sourceNeuronName = "20" targetNeuronName = "59" weight = "0.08943967603745073" />
    <synapse sourceNeuronName = "21" targetNeuronName = "59" weight = "-0.17539216271436664" />
    <synapse sourceNeuronName = "22" targetNeuronName = "59" weight = "0.8035780024377739" />
    <synapse sourceNeuronName = "23" targetNeuronName = "59" weight = "-0.42471975443372956" />
    <synapse sourceNeuronName = "24" targetNeuronName = "59" weight = "-0.8151604379753452" />
    <synapse sourceNeuronName = "25" targetNeuronName = "59" weight = "0.13710542563868255" />
    <synapse sourceNeuronName = "26" targetNeuronName = "59" weight = "-0.07533923055129566" />
    <synapse sourceNeuronName = "27" targetNeuronName = "59" weight = "-0.6859707131920267" />
    <synapse sourceNeuronName = "0" targetNeuronName = "60" weight = "0.8997246192237687" />
    <synapse sourceNeuronName = "1" targetNeuronName = "60" weight = "0.7855659461268081" />
    <synapse sourceNeuronName = "2" targetNeuronName = "60" weight = "-0.6053788262612692" />
    <synapse sourceNeuronName = "3" targetNeuronName = "60" weight = "-0.9529030258351741" />
    <synapse sourceNeuronName = "4" targetNeuronName = "60" weight = "0.15827114697021782" />
    <synapse sourceNeuronName = "5" targetNeuronName = "60" weight = "0.024698469874780526" />
    <synapse sourceNeuronName = "6" targetNeuronName = "60" weight = "-0.3359381343664307" />
    <synapse sourceNeuronName = "7" targetNeuronName = "60" weight = "0.48476303865827064" />
    <synapse sourceNeuronName = "8" targetNeuronName = "60" weight = "0.13459719288389427" />
    <synapse sourceNeuronName = "9" targetNeuronName = "60" weight = "-0.3633030790633178" />
    <synapse sourceNeuronName = "10" targetNeuronName = "60" weight = "0.14381976117662654" />
    <synapse sourceNeuronName = "11" targetNeuronName = "60" weight = "0.6994501454396111" />
    <synapse sourceNeuronName = "12" targetNeuronName = "60" weight = "-0.5520286963455434" />
    <synapse sourceNeuronName = "13" targetNeuronName = "60" weight = "0.05005727961659123" />
    <synapse sourceNeuronName = "14" targetNeuronName = "60" weight = "-0.5804406143423797" />
    <synapse sourceNeuronName = "15" targetNeuronName = "60" weight = "0.6946116100044952" />
    <synapse sourceNeuronName = "16" targetNeuronName = "60" weight = "0.5124130613076878" />
    <synapse sourceNeuronName = "17" targetNeuronName = "60" weight = "-0.0461536882320035" />
    <synapse sourceNeuronName = "18" targetNeuronName = "60" weight = "0.21720722790963976" />
    <synapse sourceNeuronName = "19" targetNeuronName = "60" weight = "0.47504157913357137" />
    <synapse sourceNeuronName = "20" targetNeuronName = "60" weight = "0.6274500988423268" />
    <synapse sourceNeuronName = "21" targetNeuronName = "60" weight = "0.22916868721025474" />
    <synapse sourceNeuronName = "22" targetNeuronName = "60" weight = "0.18062255865881438" />
    <synapse sourceNeuronName = "23" targetNeuronName = "60" weight = "-0.4649465454960342" />
    <synapse sourceNeuronName = "24" targetNeuronName = "60" weight = "0.30570169065938857" />
    <synapse sourceNeuronName = "25" targetNeuronName = "60" weight = "0.9160378840821659" />
    <synapse sourceNeuronName = "26" targetNeuronName = "60" weight = "0.5369089520268571" />
    <synapse sourceNeuronName = "27" targetNeuronName = "60" weight = "-0.34799735699845025" />
    <synapse sourceNeuronName = "0" targetNeuronName = "61" weight = "-0.5897737734377175" />
    <synapse sourceNeuronName = "1" targetNeuronName = "61" weight = "-0.31926505522353343" />
    <synapse sourceNeuronName = "2" targetNeuronName = "61" weight = "0.061282684151771294" />
    <synapse sourceNeuronName = "3" targetNeuronName = "61" weight = "-0.3883416440366294" />
    <synapse sourceNeuronName = "4" targetNeuronName = "61" weight = "-0.12006798671994323" />
    <synapse sourceNeuronName = "5" targetNeuronName = "61" weight = "-0.08332900297829204" />
    <synapse sourceNeuronName = "6" targetNeuronName = "61" weight = "-0.09540237571214671" />
    <synapse sourceNeuronName = "7" targetNeuronName = "61" weight = "-0.9163588808475736" />
    <synapse sourceNeuronName = "8" targetNeuronName = "61" weight = "0.6428520580838026" />
    <synapse sourceNeuronName = "9" targetNeuronName = "61" weight = "-0.523160541253455" />
    <synapse sourceNeuronName = "10" targetNeuronName = "61" weight = "-0.9524003234486513" />
    <synapse sourceNeuronName = "11" targetNeuronName = "61" weight = "-0.22419403279818573" />
    <synapse sourceNeuronName = "12" targetNeuronName = "61" weight = "0.9253439504785659" />
    <synapse sourceNeuronName = "13" targetNeuronName = "61" weight = "0.5552257807892544" />
    <synapse sourceNeuronName = "14" targetNeuronName = "61" weight = "-0.9551885423970612" />
    <synapse sourceNeuronName = "15" targetNeuronName = "61" weight = "-0.5822211483640194" />
    <synapse sourceNeuronName = "16" targetNeuronName = "61" weight = "-0.5207140136251358" />
    <synapse sourceNeuronName = "17" targetNeuronName = "61" weight = "-0.3604315299081644" />
    <synapse sourceNeuronName = "18" targetNeuronName = "61" weight = "0.2265764174838314" />
    <synapse sourceNeuronName = "19" targetNeuronName = "61" weight = "-0.1524154662916941" />
    <synapse sourceNeuronName = "20" targetNeuronName = "61" weight = "-0.5510683946072259" />
    <synapse sourceNeuronName = "21" targetNeuronName = "61" weight = "0.24591997535464083" />
    <synapse sourceNeuronName = "22" targetNeuronName = "61" weight = "0.6789645957894865" />
    <synapse sourceNeuronName = "23" targetNeuronName = "61" weight = "-0.05303103526335695" />
    <synapse sourceNeuronName = "24" targetNeuronName = "61" weight = "-0.5526278657611876" />
    <synapse sourceNeuronName = "25" targetNeuronName = "61" weight = "0.6237585947568665" />
    <synapse sourceNeuronName = "26" targetNeuronName = "61" weight = "0.10732283563264744" />
    <synapse sourceNeuronName = "27" targetNeuronName = "61" weight = "0.4854619319473503" />
    <synapse sourceNeuronName = "0" targetNeuronName = "62" weight = "0.4459784828146869" />
    <synapse sourceNeuronName = "1" targetNeuronName = "62" weight = "-0.07967002832258263" />
    <synapse sourceNeuronName = "2" targetNeuronName = "62" weight = "0.5131595551120249" />
    <synapse sourceNeuronName = "3" targetNeuronName = "62" weight = "0.4564371514908554" />
    <synapse sourceNeuronName = "4" targetNeuronName = "62" weight = "0.25439877204681793" />
    <synapse sourceNeuronName = "5" targetNeuronName = "62" weight = "-0.6094699065245961" />
    <synapse sourceNeuronName = "6" targetNeuronName = "62" weight = "0.2925032550594937" />
    <synapse sourceNeuronName = "7" targetNeuronName = "62" weight = "-0.785052162882298" />
    <synapse sourceNeuronName = "8" targetNeuronName = "62" weight = "-0.6749322247208258" />
    <synapse sourceNeuronName = "9" targetNeuronName = "62" weight = "0.6100584324848475" />
    <synapse sourceNeuronName = "10" targetNeuronName = "62" weight = "-0.33155623575585413" />
    <synapse sourceNeuronName = "11" targetNeuronName = "62" weight = "0.3843715705211117" />
    <synapse sourceNeuronName = "12" targetNeuronName = "62" weight = "-0.8879403737034972" />
    <synapse sourceNeuronName = "13" targetNeuronName = "62" weight = "0.07700456276451928" />
    <synapse sourceNeuronName = "14" targetNeuronName = "62" weight = "0.009185247604117874" />
    <synapse sourceNeuronName = "15" targetNeuronName = "62" weight = "0.992421640292217" />
    <synapse sourceNeuronName = "16" targetNeuronName = "62" weight = "0.3207513585015258" />
    <synapse sourceNeuronName = "17" targetNeuronName = "62" weight = "0.3521032210324073" />
    <synapse sourceNeuronName = "18" targetNeuronName = "62" weight = "0.015887752902267183" />
    <synapse sourceNeuronName = "19" targetNeuronName = "62" weight = "-0.025966180447878795" />
    <synapse sourceNeuronName = "20" targetNeuronName = "62" weight = "-0.19336811759477412" />
    <synapse sourceNeuronName = "21" targetNeuronName = "62" weight = "0.10837386209837874" />
    <synapse sourceNeuronName = "22" targetNeuronName = "62" weight = "0.3220652056811013" />
    <synapse sourceNeuronName = "23" targetNeuronName = "62" weight = "0.40212721378309646" />
    <synapse sourceNeuronName = "24" targetNeuronName = "62" weight = "0.7651229726927748" />
    <synapse sourceNeuronName = "25" targetNeuronName = "62" weight = "0.26514319074443216" />
    <synapse sourceNeuronName = "26" targetNeuronName = "62" weight = "0.9267187852809466" />
    <synapse sourceNeuronName = "27" targetNeuronName = "62" weight = "0.8266466046526155" />
    <synapse sourceNeuronName = "0" targetNeuronName = "63" weight = "0.6537906856229712" />
    <synapse sourceNeuronName = "1" targetNeuronName = "63" weight = "-0.579095704379426" />
    <synapse sourceNeuronName = "2" targetNeuronName = "63" weight = "-0.24505843809983663" />
    <synapse sourceNeuronName = "3" targetNeuronName = "63" weight = "0.6231156874922399" />
    <synapse sourceNeuronName = "4" targetNeuronName = "63" weight = "0.5828165237319651" />
    <synapse sourceNeuronName = "5" targetNeuronName = "63" weight = "0.13976111501613597" />
    <synapse sourceNeuronName = "6" targetNeuronName = "63" weight = "0.9688709251771792" />
    <synapse sourceNeuronName = "7" targetNeuronName = "63" weight = "0.30038451040130587" />
    <synapse sourceNeuronName = "8" targetNeuronName = "63" weight = "-0.9950959829718968" />
    <synapse sourceNeuronName = "9" targetNeuronName = "63" weight = "0.8532931565264437" />
    <synapse sourceNeuronName = "10" targetNeuronName = "63" weight = "0.6123371066475891" />
    <synapse sourceNeuronName = "11" targetNeuronName = "63" weight = "-0.411657190655053" />
    <synapse sourceNeuronName = "12" targetNeuronName = "63" weight = "0.8060194380651362" />
    <synapse sourceNeuronName = "13" targetNeuronName = "63" weight = "-0.0640853163273527" />
    <synapse sourceNeuronName = "14" targetNeuronName = "63" weight = "0.4494078084766553" />
    <synapse sourceNeuronName = "15" targetNeuronName = "63" weight = "0.7436825412111219" />
    <synapse sourceNeuronName = "16" targetNeuronName = "63" weight = "-0.935515719700132" />
    <synapse sourceNeuronName = "17" targetNeuronName = "63" weight = "-0.9709214424988839" />
    <synapse sourceNeuronName = "18" targetNeuronName = "63" weight = "0.9929696673069095" />
    <synapse sourceNeuronName = "19" targetNeuronName = "63" weight = "-0.6838248417688719" />
    <synapse sourceNeuronName = "20" targetNeuronName = "63" weight = "-0.4415860045932962" />
    <synapse sourceNeuronName = "21" targetNeuronName = "63" weight = "-0.542274077613937" />
    <synapse sourceNeuronName = "22" targetNeuronName = "63" weight = "0.8661131967840245" />
    <synapse sourceNeuronName = "23" targetNeuronName = "63" weight = "-0.27757617780260846" />
    <synapse sourceNeuronName = "24" targetNeuronName = "63" weight = "-0.7159843137987791" />
    <synapse sourceNeuronName = "25" targetNeuronName = "63" weight = "0.97533572827551" />
    <synapse sourceNeuronName = "26" targetNeuronName = "63" weight = "0.5654921043523009" />
    <synapse sourceNeuronName = "27" targetNeuronName = "63" weight = "0.9122533123346408" />
    <synapse sourceNeuronName = "0" targetNeuronName = "64" weight = "-0.3063925308449458" />
    <synapse sourceNeuronName = "1" targetNeuronName = "64" weight = "-0.4690361777555414" />
    <synapse sourceNeuronName = "2" targetNeuronName = "64" weight = "-0.5393208507219007" />
    <synapse sourceNeuronName = "3" targetNeuronName = "64" weight = "0.9677214244675949" />
    <synapse sourceNeuronName = "4" targetNeuronName = "64" weight = "-0.6408306846773089" />
    <synapse sourceNeuronName = "5" targetNeuronName = "64" weight = "0.9681816458358306" />
    <synapse sourceNeuronName = "6" targetNeuronName = "64" weight = "0.6451623960792516" />
    <synapse sourceNeuronName = "7" targetNeuronName = "64" weight = "-0.05652244037894327" />
    <synapse sourceNeuronName = "8" targetNeuronName = "64" weight = "0.5281579997564894" />
